{"learner":{"attributes":{"scikit_learn":"{\"_estimator_type\": \"regressor\"}"},"feature_names":["Zip Code","Number of Rooms","Livable Space (m2)","Fully Equipped Kitchen","Furnished","Fireplace","Terrace","Terrace Area (m2)","Garden","Garden Area (m2)","Swimming Pool","Number of Facades","Primary Energy Consumption (kWh/m2)","Building Age","PEB_B","PEB_C","PEB_D","PEB_E","PEB_F","PEB_G","State of the Building_Good","State of the Building_Just renovated","State of the Building_To be done up","State of the Building_To renovate","State of the Building_To restore","Type of Property_House","Subtype of Property_apartment-block","Subtype of Property_bungalow","Subtype of Property_castle","Subtype of Property_chalet","Subtype of Property_country-cottage","Subtype of Property_duplex","Subtype of Property_exceptional-property","Subtype of Property_farmhouse","Subtype of Property_flat-studio","Subtype of Property_ground-floor","Subtype of Property_house","Subtype of Property_kot","Subtype of Property_loft","Subtype of Property_manor-house","Subtype of Property_mansion","Subtype of Property_mixed-use-building","Subtype of Property_other-property","Subtype of Property_pavilion","Subtype of Property_penthouse","Subtype of Property_service-flat","Subtype of Property_town-house","Subtype of Property_triplex","Subtype of Property_villa","Municipality code","Prosperity index"],"feature_types":["int","float","float","int","int","int","int","float","int","float","int","float","float","float","int","int","int","int","int","int","int","int","int","int","int","int","int","int","int","int","int","int","int","int","int","int","int","int","int","int","int","int","int","int","int","int","int","int","int","float","float"],"gradient_booster":{"model":{"gbtree_model_param":{"num_parallel_tree":"1","num_trees":"100"},"iteration_indptr":[0,1,2,3,4,5,6,7,8,9,10,11,12,13,14,15,16,17,18,19,20,21,22,23,24,25,26,27,28,29,30,31,32,33,34,35,36,37,38,39,40,41,42,43,44,45,46,47,48,49,50,51,52,53,54,55,56,57,58,59,60,61,62,63,64,65,66,67,68,69,70,71,72,73,74,75,76,77,78,79,80,81,82,83,84,85,86,87,88,89,90,91,92,93,94,95,96,97,98,99,100],"tree_info":[0,0,0,0,0,0,0,0,0,0,0,0,0,0,0,0,0,0,0,0,0,0,0,0,0,0,0,0,0,0,0,0,0,0,0,0,0,0,0,0,0,0,0,0,0,0,0,0,0,0,0,0,0,0,0,0,0,0,0,0,0,0,0,0,0,0,0,0,0,0,0,0,0,0,0,0,0,0,0,0,0,0,0,0,0,0,0,0,0,0,0,0,0,0,0,0,0,0,0,0],"trees":[{"base_weights":[-3.5101557E-3,-4.655077E4,1.3372169E5,-5.7589652E4,2.85784E5,2.1976562E5,6.8108875E4,-1.1161161E5,-9.982218E3,3.8863082E4,3.3013975E5,1.7906878E5,3.179546E5,1.2197872E5,9.560812E3,-1.6922253E5,-9.463534E4,8.59331E4,-3.816287E4,-2.9917008E4,9.396003E4,2.9111853E5,4.058261E5,3.136732E5,1.4676236E5,3.711197E5,2.4877483E5,1.0067278E5,2.7623297E5,-4.3857805E4,5.3973418E4,-1.9804775E5,-1.5225377E5,-7.852777E4,-1.6157867E5,3.3387758E4,1.3715275E5,-9.881133E4,-1.4097557E4,-9.421147E3,-5.88727E4,1.8417477E5,-2.657597E4,3.179518E5,1.3813003E5,4.1887934E5,1.1628336E5,4.7105884E5,2.70459E5,2.1702833E5,1.04570984E5,4.184946E5,3.1521944E5,2.1816148E5,3.6910134E5,3.9490645E4,1.457007E5,2.0560203E5,3.552659E5,-2.8279455E4,-1.0973409E5,6.987738E3,1.08931875E5,-5.187079E4,-6.6792914E4,-4.221311E4,-6.1117977E4,-1.0036131E4,-2.8348744E4,-3.718019E4,-5.5112867E4,3.316728E4,3.87843E3,5.5978387E4,1.6343651E4,-1.3139324E4,-3.8478566E4,1.2693282E4,-1.0628042E4,-7.375838E3,9.567608E3,-2.0505742E4,-7.558493E3,2.569981E4,7.927981E4,4.4298086E3,-2.7314994E4,7.482757E4,1.0928816E5,1.6720876E2,7.0320914E4,1.2690664E5,4.2348008E4,4.733761E4,-1.3688996E4,6.031651E4,1.4512364E5,6.969354E4,1.0657335E5,6.0747707E4,1.4967634E5,2.3650006E4,5.4483547E4,1.8880008E4,1.2897813E5,8.706725E4,1.2827323E5,5.771478E4,1.14923695E5,1.2182417E5,5.9719812E4,2.4211242E4,-6.4944805E3,3.1129686E4,6.2762777E4,4.8879695E4,8.9512766E4,1.1079167E5,1.1491508E4,-1.2928813E4,1.3864001E4,-4.9178543E4,-2.114001E4,-3.171285E4,4.372515E3,2.6498318E4,9.007657E4],"categories":[],"categories_nodes":[],"categories_segments":[],"categories_sizes":[],"default_left":[0,0,0,0,0,0,0,0,0,0,0,0,0,0,0,0,0,0,0,0,0,0,0,0,0,0,0,0,0,0,0,0,0,0,0,0,0,0,0,0,0,0,0,0,0,0,0,0,0,0,0,0,0,0,0,0,0,0,0,0,0,0,0,0,0,0,0,0,0,0,0,0,0,0,0,0,0,0,0,0,0,0,0,0,0,0,0,0,0,0,0,0,0,0,0,0,0,0,0,0,0,0,0,0,0,0,0,0,0,0,0,0,0,0,0,0,0,0,0,0,0,0,0,0,0,0,0],"id":0,"left_children":[1,3,5,7,9,11,13,15,17,19,21,23,25,27,29,31,33,35,37,39,41,43,45,47,49,51,53,55,57,59,61,63,65,67,69,71,73,75,77,79,81,83,85,87,89,91,93,95,97,99,101,103,105,107,109,111,113,115,117,119,121,123,125,-1,-1,-1,-1,-1,-1,-1,-1,-1,-1,-1,-1,-1,-1,-1,-1,-1,-1,-1,-1,-1,-1,-1,-1,-1,-1,-1,-1,-1,-1,-1,-1,-1,-1,-1,-1,-1,-1,-1,-1,-1,-1,-1,-1,-1,-1,-1,-1,-1,-1,-1,-1,-1,-1,-1,-1,-1,-1,-1,-1,-1,-1,-1,-1],"loss_changes":[9.914936E13,4.3361025E13,2.3205314E13,2.9410518E13,4.1490684E12,7.0519085E12,7.363366E12,5.223234E12,1.6437255E13,2.263958E11,8.328399E11,5.433184E12,1.8202063E12,3.9686127E12,2.6595222E12,5.65604E11,4.4514484E12,3.7121813E12,6.85837E12,1.5469089E10,3.637407E11,8.4280135E11,3.5569585E11,1.5253132E12,2.9952846E12,6.413762E11,7.6301835E11,2.941995E12,7.475351E11,5.192549E11,1.5795825E12,2.3857096E11,4.294401E11,2.4000646E12,6.4538804E11,1.07693795E12,2.8470327E12,2.1573235E12,4.051304E12,1.1434828E10,1.7896899E9,1.2726547E11,4.1326703E10,4.9028058E11,4.501835E11,5.7640223E10,4.752489E10,7.743734E10,5.416975E11,1.4601526E12,1.2507404E12,6.030088E11,2.6346835E11,7.128094E11,2.0211302E11,1.1482324E12,1.618844E12,2.6807553E11,2.884554E11,4.5783165E11,1.9487156E11,2.845686E11,1.0851383E12,0E0,0E0,0E0,0E0,0E0,0E0,0E0,0E0,0E0,0E0,0E0,0E0,0E0,0E0,0E0,0E0,0E0,0E0,0E0,0E0,0E0,0E0,0E0,0E0,0E0,0E0,0E0,0E0,0E0,0E0,0E0,0E0,0E0,0E0,0E0,0E0,0E0,0E0,0E0,0E0,0E0,0E0,0E0,0E0,0E0,0E0,0E0,0E0,0E0,0E0,0E0,0E0,0E0,0E0,0E0,0E0,0E0,0E0,0E0,0E0,0E0,0E0,0E0,0E0],"parents":[2147483647,0,0,1,1,2,2,3,3,4,4,5,5,6,6,7,7,8,8,9,9,10,10,11,11,12,12,13,13,14,14,15,15,16,16,17,17,18,18,19,19,20,20,21,21,22,22,23,23,24,24,25,25,26,26,27,27,28,28,29,29,30,30,31,31,32,32,33,33,34,34,35,35,36,36,37,37,38,38,39,39,40,40,41,41,42,42,43,43,44,44,45,45,46,46,47,47,48,48,49,49,50,50,51,51,52,52,53,53,54,54,55,55,56,56,57,57,58,58,59,59,60,60,61,61,62,62],"right_children":[2,4,6,8,10,12,14,16,18,20,22,24,26,28,30,32,34,36,38,40,42,44,46,48,50,52,54,56,58,60,62,64,66,68,70,72,74,76,78,80,82,84,86,88,90,92,94,96,98,100,102,104,106,108,110,112,114,116,118,120,122,124,126,-1,-1,-1,-1,-1,-1,-1,-1,-1,-1,-1,-1,-1,-1,-1,-1,-1,-1,-1,-1,-1,-1,-1,-1,-1,-1,-1,-1,-1,-1,-1,-1,-1,-1,-1,-1,-1,-1,-1,-1,-1,-1,-1,-1,-1,-1,-1,-1,-1,-1,-1,-1,-1,-1,-1,-1,-1,-1,-1,-1,-1,-1,-1,-1],"split_conditions":[3.872549E-1,1.5E2,3.2003E4,1.8137255E-1,1.6666667E-1,6.2009805E-1,4.076087E-1,9.313726E-2,2.02E3,6.6176474E-2,3.3333334E-1,1.3E3,3.831522E-1,1E0,1.01E2,5.637255E-2,4.6014E4,2.5980392E-1,9.6E1,1E0,1E0,8.301E3,5.37931E-1,2.1603261E-1,2.9755434E-1,1E0,9.142157E-1,1.02E2,6.2009805E-1,1E0,5.0980395E-1,3.078E3,4.4034E4,1.08965516E-1,1.5034483E-1,1.18620686E-1,2.3002E4,4.02E3,1.08965516E-1,1E0,3.1862747E-2,2.6068965E-1,8.301E3,2.4827586E-1,1.1764706E-1,1E0,8.301E3,1.20923914E-1,2.6086956E-1,3.1043E4,1.19E2,3.3333334E-1,9.019608E-1,1E0,1E0,2.9755434E-1,5.4901963E-1,9E3,1E0,7.3284316E-1,9.3E1,3.3333334E-1,1E0,-5.187079E4,-6.6792914E4,-4.221311E4,-6.1117977E4,-1.0036131E4,-2.8348744E4,-3.718019E4,-5.5112867E4,3.316728E4,3.87843E3,5.5978387E4,1.6343651E4,-1.3139324E4,-3.8478566E4,1.2693282E4,-1.0628042E4,-7.375838E3,9.567608E3,-2.0505742E4,-7.558493E3,2.569981E4,7.927981E4,4.4298086E3,-2.7314994E4,7.482757E4,1.0928816E5,1.6720876E2,7.0320914E4,1.2690664E5,4.2348008E4,4.733761E4,-1.3688996E4,6.031651E4,1.4512364E5,6.969354E4,1.0657335E5,6.0747707E4,1.4967634E5,2.3650006E4,5.4483547E4,1.8880008E4,1.2897813E5,8.706725E4,1.2827323E5,5.771478E4,1.14923695E5,1.2182417E5,5.9719812E4,2.4211242E4,-6.4944805E3,3.1129686E4,6.2762777E4,4.8879695E4,8.9512766E4,1.1079167E5,1.1491508E4,-1.2928813E4,1.3864001E4,-4.9178543E4,-2.114001E4,-3.171285E4,4.372515E3,2.6498318E4,9.007657E4],"split_indices":[2,50,49,2,1,2,12,2,0,2,1,0,12,48,50,2,49,2,50,34,20,0,13,12,12,36,2,50,2,23,2,0,49,13,13,13,49,0,13,3,2,13,0,13,2,48,0,12,11,49,50,1,2,48,41,12,2,0,16,2,50,1,48,0,0,0,0,0,0,0,0,0,0,0,0,0,0,0,0,0,0,0,0,0,0,0,0,0,0,0,0,0,0,0,0,0,0,0,0,0,0,0,0,0,0,0,0,0,0,0,0,0,0,0,0,0,0,0,0,0,0,0,0,0,0,0,0],"split_type":[0,0,0,0,0,0,0,0,0,0,0,0,0,0,0,0,0,0,0,0,0,0,0,0,0,0,0,0,0,0,0,0,0,0,0,0,0,0,0,0,0,0,0,0,0,0,0,0,0,0,0,0,0,0,0,0,0,0,0,0,0,0,0,0,0,0,0,0,0,0,0,0,0,0,0,0,0,0,0,0,0,0,0,0,0,0,0,0,0,0,0,0,0,0,0,0,0,0,0,0,0,0,0,0,0,0,0,0,0,0,0,0,0,0,0,0,0,0,0,0,0,0,0,0,0,0,0],"sum_hessian":[1.5926E4,1.1814E4,4.112E3,1.1435E4,3.79E2,1.778E3,2.334E3,5.356E3,6.079E3,5.8E1,3.21E2,1.259E3,5.19E2,1.215E3,1.119E3,1.217E3,4.139E3,1.38E3,4.699E3,2.6E1,3.2E1,2.15E2,1.06E2,2.42E2,1.017E3,2.91E2,2.28E2,1.069E3,1.46E2,5.08E2,6.11E2,4.47E2,7.7E2,3.338E3,8.01E2,6.82E2,6.98E2,1.334E3,3.365E3,1.6E1,1E1,1.8E1,1.4E1,1.82E2,3.3E1,1.01E2,5E0,5E1,1.92E2,3.8E2,6.37E2,1.54E2,1.37E2,1.84E2,4.4E1,4.54E2,6.15E2,7.9E1,6.7E1,4.12E2,9.6E1,3.3E2,2.81E2,2.25E2,2.22E2,6.32E2,1.38E2,8.74E2,2.464E3,2.99E2,5.02E2,1.42E2,5.4E2,4.36E2,2.62E2,4.66E2,8.68E2,9.23E2,2.442E3,1.2E1,4E0,7E0,3E0,9E0,9E0,9E0,5E0,7.6E1,1.06E2,1.4E1,1.9E1,9.9E1,2E0,4E0,1E0,3E0,4.7E1,1.35E2,5.7E1,3.63E2,1.7E1,4.79E2,1.58E2,5E0,1.49E2,1.15E2,2.2E1,1.61E2,2.3E1,3.5E1,9E0,2.71E2,1.83E2,3.72E2,2.43E2,5.6E1,2.3E1,6.4E1,3E0,3.44E2,6.8E1,3.9E1,5.7E1,2E1,3.1E2,2.55E2,2.6E1],"tree_param":{"num_deleted":"0","num_feature":"51","num_nodes":"127","size_leaf_vector":"1"}},{"base_weights":[1.2560971E2,-4.550491E4,7.21388E4,-5.5057355E4,1.9083025E5,1.3188156E5,2.9518742E4,-9.609144E4,-3.1765771E4,2.5878676E4,2.2116233E5,1.9197922E5,8.435533E4,7.368996E4,-6.4504507E3,-4.25995E4,-1.0580241E5,2.3311648E4,-5.2339773E4,-2.4994662E4,6.825973E4,2.3651069E5,1.2697907E5,1.6356483E5,2.4958834E5,3.78509E4,1.4723798E5,2.4862559E3,9.887113E4,-3.0522295E4,5.137415E4,-8.39855E4,-1.5223275E4,-9.329146E4,-1.3181364E5,-3.0199602E3,6.16999E4,-2.0501172E4,-7.893488E4,-6.4658677E3,-4.9160902E4,1.3444758E5,-2.0128857E4,8.649849E4,2.4365114E5,4.0129166E2,1.8066658E5,2.2911333E5,1.3692503E5,2.8036028E5,1.6277734E5,9.62933E4,1.3973099E4,1.6171314E5,1.6454588E4,-1.7140451E4,1.0732021E5,6.658299E4,1.6224064E5,-6.291784E4,4.0111758E3,2.122325E4,1.6215967E5,-1.8617262E4,-3.2250473E4,-8.820453E3,8.7499E3,-1.864985E4,-3.0474229E4,-3.3890684E4,-4.389792E4,1.4863612E4,-5.3328086E3,6.614704E4,1.4425457E4,-1.4381714E4,7.87435E2,-3.1092916E4,-1.5007598E4,3.8330737E3,-8.913333E3,-1.8772914E4,-9.191682E3,7.285377E4,1.9721139E4,-1.1828154E4,2.1062045E4,3.40542E4,-2.825632E3,6.771621E4,9.115898E4,-9.533683E3,4.1914562E4,7.053898E4,-5.676784E3,9.2286375E4,5.4784543E4,4.9017562E4,2.7875795E4,9.075466E4,4.629154E4,3.6429582E4,8.659344E4,2.1846256E4,5.7339227E4,7.9439585E3,-1.5650605E4,4.5474023E4,9.969004E4,-5.921227E2,4.8459176E4,-6.9858335E3,3.7482824E4,5.753806E4,5.907125E3,7.375218E3,2.8201822E4,2.3094977E4,5.445023E4,-1.5231976E4,-3.5127555E4,-8.5193695E2,4.9166074E4,1.7852395E4,1.43625E2,6.88935E4,2.627722E4],"categories":[],"categories_nodes":[],"categories_segments":[],"categories_sizes":[],"default_left":[0,0,0,0,0,0,0,0,0,0,0,0,0,0,0,0,0,0,0,0,0,0,0,0,0,0,0,0,0,0,0,0,0,0,0,0,0,0,0,0,0,0,0,0,0,0,0,0,0,0,0,0,0,0,0,0,0,0,0,0,0,0,0,0,0,0,0,0,0,0,0,0,0,0,0,0,0,0,0,0,0,0,0,0,0,0,0,0,0,0,0,0,0,0,0,0,0,0,0,0,0,0,0,0,0,0,0,0,0,0,0,0,0,0,0,0,0,0,0,0,0,0,0,0,0,0,0],"id":1,"left_children":[1,3,5,7,9,11,13,15,17,19,21,23,25,27,29,31,33,35,37,39,41,43,45,47,49,51,53,55,57,59,61,63,65,67,69,71,73,75,77,79,81,83,85,87,89,91,93,95,97,99,101,103,105,107,109,111,113,115,117,119,121,123,125,-1,-1,-1,-1,-1,-1,-1,-1,-1,-1,-1,-1,-1,-1,-1,-1,-1,-1,-1,-1,-1,-1,-1,-1,-1,-1,-1,-1,-1,-1,-1,-1,-1,-1,-1,-1,-1,-1,-1,-1,-1,-1,-1,-1,-1,-1,-1,-1,-1,-1,-1,-1,-1,-1,-1,-1,-1,-1,-1,-1,-1,-1,-1,-1],"loss_changes":[5.2339394E13,2.2021897E13,1.5726776E13,8.954225E12,1.8905374E12,7.329991E12,5.7312884E12,1.7580174E12,6.7775344E12,1.3107007E11,4.3254704E11,1.8170899E12,4.1996014E12,2.9026094E12,2.7701462E12,5.912766E11,9.219961E11,1.6447979E12,3.6851365E12,1.2219728E10,1.9576454E11,2.724211E11,3.1932285E11,1.3009787E12,9.507774E11,1.1541085E12,1.1540292E12,8.742387E11,2.436315E12,1.572069E12,1.9506241E12,1.0058583E11,1.997373E11,4.9473493E11,2.3781494E11,7.501659E11,1.4205995E12,1.2583929E12,1.6891395E12,7.9837686E9,1.06449715E9,1.255499E11,2.8917957E10,3.734673E10,2.1319438E11,7.1687315E10,3.63169E11,7.4327785E11,6.1957525E11,7.185409E11,4.8535306E11,5.2033775E11,4.886137E11,9.0034196E11,1.6607632E11,3.155133E11,4.9218283E11,9.1217094E11,6.477809E11,4.710476E11,7.463668E11,3.6609655E11,6.089241E11,0E0,0E0,0E0,0E0,0E0,0E0,0E0,0E0,0E0,0E0,0E0,0E0,0E0,0E0,0E0,0E0,0E0,0E0,0E0,0E0,0E0,0E0,0E0,0E0,0E0,0E0,0E0,0E0,0E0,0E0,0E0,0E0,0E0,0E0,0E0,0E0,0E0,0E0,0E0,0E0,0E0,0E0,0E0,0E0,0E0,0E0,0E0,0E0,0E0,0E0,0E0,0E0,0E0,0E0,0E0,0E0,0E0,0E0,0E0,0E0,0E0,0E0,0E0,0E0],"parents":[2147483647,0,0,1,1,2,2,3,3,4,4,5,5,6,6,7,7,8,8,9,9,10,10,11,11,12,12,13,13,14,14,15,15,16,16,17,17,18,18,19,19,20,20,21,21,22,22,23,23,24,24,25,25,26,26,27,27,28,28,29,29,30,30,31,31,32,32,33,33,34,34,35,35,36,36,37,37,38,38,39,39,40,40,41,41,42,42,43,43,44,44,45,45,46,46,47,47,48,48,49,49,50,50,51,51,52,52,53,53,54,54,55,55,56,56,57,57,58,58,59,59,60,60,61,61,62,62],"right_children":[2,4,6,8,10,12,14,16,18,20,22,24,26,28,30,32,34,36,38,40,42,44,46,48,50,52,54,56,58,60,62,64,66,68,70,72,74,76,78,80,82,84,86,88,90,92,94,96,98,100,102,104,106,108,110,112,114,116,118,120,122,124,126,-1,-1,-1,-1,-1,-1,-1,-1,-1,-1,-1,-1,-1,-1,-1,-1,-1,-1,-1,-1,-1,-1,-1,-1,-1,-1,-1,-1,-1,-1,-1,-1,-1,-1,-1,-1,-1,-1,-1,-1,-1,-1,-1,-1,-1,-1,-1,-1,-1,-1,-1,-1,-1,-1,-1,-1,-1,-1,-1,-1,-1,-1,-1,-1],"split_conditions":[3.0882353E-1,1.38E2,3.2003E4,1.4460784E-1,1.6666667E-1,1E0,3.6956522E-1,1.06E3,2.02E3,6.6176474E-2,8.301E3,5.4656863E-1,4.6078432E-1,2.6086956E-1,6.5217394E-1,8.82353E-2,3.75E-1,2.1813725E-1,2.6902175E-1,1E0,1E0,2.4062E4,1.1764706E-1,2.0652173E-1,4.769022E-1,2.8804347E-1,1E0,7.1813726E-1,5.2205884E-1,1.03E2,6.2009805E-1,3.396739E-1,1.3480392E-1,1.3451087E-1,3.97E3,1.4130434E-1,2.3448275E-2,1.02E2,1.03E2,2.6086956E-1,1E0,1.861413E-1,3.5310346E-1,1.18620686E-1,1.8382353E-1,1E0,1E0,1.19E3,2.02E3,1E0,1E0,1.21E2,6.929348E-1,1.36E2,8.161765E-1,1.22E2,2.3641305E-1,1.03E2,9.5E1,1E0,1E0,4.728261E-1,4.5059E4,-1.8617262E4,-3.2250473E4,-8.820453E3,8.7499E3,-1.864985E4,-3.0474229E4,-3.3890684E4,-4.389792E4,1.4863612E4,-5.3328086E3,6.614704E4,1.4425457E4,-1.4381714E4,7.87435E2,-3.1092916E4,-1.5007598E4,3.8330737E3,-8.913333E3,-1.8772914E4,-9.191682E3,7.285377E4,1.9721139E4,-1.1828154E4,2.1062045E4,3.40542E4,-2.825632E3,6.771621E4,9.115898E4,-9.533683E3,4.1914562E4,7.053898E4,-5.676784E3,9.2286375E4,5.4784543E4,4.9017562E4,2.7875795E4,9.075466E4,4.629154E4,3.6429582E4,8.659344E4,2.1846256E4,5.7339227E4,7.9439585E3,-1.5650605E4,4.5474023E4,9.969004E4,-5.921227E2,4.8459176E4,-6.9858335E3,3.7482824E4,5.753806E4,5.907125E3,7.375218E3,2.8201822E4,2.3094977E4,5.445023E4,-1.5231976E4,-3.5127555E4,-8.5193695E2,4.9166074E4,1.7852395E4,1.43625E2,6.88935E4,2.627722E4],"split_indices":[2,50,49,2,1,36,12,0,0,2,0,2,2,11,11,2,12,2,12,34,20,49,2,12,12,12,23,2,2,50,2,12,2,12,0,12,13,50,50,11,14,12,13,13,2,6,25,0,0,41,48,50,12,50,2,50,12,50,50,23,48,12,49,0,0,0,0,0,0,0,0,0,0,0,0,0,0,0,0,0,0,0,0,0,0,0,0,0,0,0,0,0,0,0,0,0,0,0,0,0,0,0,0,0,0,0,0,0,0,0,0,0,0,0,0,0,0,0,0,0,0,0,0,0,0,0,0],"split_type":[0,0,0,0,0,0,0,0,0,0,0,0,0,0,0,0,0,0,0,0,0,0,0,0,0,0,0,0,0,0,0,0,0,0,0,0,0,0,0,0,0,0,0,0,0,0,0,0,0,0,0,0,0,0,0,0,0,0,0,0,0,0,0,0,0,0,0,0,0,0,0,0,0,0,0,0,0,0,0,0,0,0,0,0,0,0,0,0,0,0,0,0,0,0,0,0,0,0,0,0,0,0,0,0,0,0,0,0,0,0,0,0,0,0,0,0,0,0,0,0,0,0,0,0,0,0,0],"sum_hessian":[1.5926E4,9.749E3,6.177E3,9.371E3,3.78E2,2.571E3,3.606E3,3.392E3,5.979E3,5.9E1,3.19E2,1.134E3,1.437E3,1.618E3,1.988E3,5.22E2,2.87E3,1.626E3,4.353E3,2.7E1,3.2E1,2.73E2,4.6E1,7.62E2,3.72E2,8.27E2,6.1E2,4.23E2,1.195E3,1.404E3,5.84E2,2.07E2,3.15E2,1.941E3,9.29E2,9.65E2,6.61E2,1.982E3,2.371E3,1.6E1,1.1E1,1.8E1,1.4E1,1.3E1,2.6E2,1.4E1,3.2E1,2.18E2,5.44E2,2.73E2,9.9E1,2.39E2,5.88E2,5.49E2,6.1E1,3.57E2,6.6E1,7.93E2,4.02E2,7.24E2,6.8E2,4.6E2,1.24E2,1.09E2,9.8E1,2.39E2,7.6E1,4.1E2,1.531E3,4.08E2,5.21E2,2.11E2,7.54E2,5.1E1,6.1E2,9.06E2,1.076E3,1.277E3,1.094E3,9E0,7E0,5E0,6E0,6E0,1.2E1,1.2E1,2E0,1E1,3E0,2.04E2,5.6E1,1.2E1,2E0,2.5E1,7E0,7.9E1,1.39E2,3.38E2,2.06E2,2.31E2,4.2E1,7.6E1,2.3E1,1.93E2,4.6E1,4.95E2,9.3E1,5.2E2,2.9E1,5.5E1,6E0,3.43E2,1.4E1,3.3E1,3.3E1,3.14E2,4.79E2,7.5E1,3.27E2,5.93E2,1.31E2,6.53E2,2.7E1,1.61E2,2.99E2,6.4E1,6E1],"tree_param":{"num_deleted":"0","num_feature":"51","num_nodes":"127","size_leaf_vector":"1"}},{"base_weights":[1.6800267E2,-2.1398443E4,7.924913E4,-2.765214E4,1.2062943E5,1.2813783E5,4.846929E4,-5.073547E4,5.5880303E3,-3.2215361E3,1.4340745E5,1.5515339E5,7.655634E4,3.5835336E4,1.5940978E5,-4.0117367E4,-9.013931E4,2.7801785E4,-3.9805766E4,2.5480969E4,-5.7546234E4,8.121851E4,1.6553269E5,2.4772336E5,1.388656E5,6.3593945E4,2.1319128E5,-2.7938887E4,5.3384605E4,2.2815958E5,1.3975358E5,-7.178535E4,-2.4923904E4,-5.0335457E4,-1.0096756E5,1.04304805E5,1.4996364E4,1.6107057E4,-4.849617E4,-1.9331098E4,5.594147E4,-1.5137074E4,-7.035201E4,1.7256612E5,5.6324734E4,1.4031647E5,2.1226873E5,2.9493472E5,1.7305031E5,1.0381449E5,1.9073627E5,5.0323453E4,1.6952939E5,2.5545814E5,4.3917477E4,-5.347742E4,3.0103867E4,6.595001E4,-3.6950812E4,1.8556803E5,2.8410375E5,9.449819E4,1.7157638E5,-2.9442484E4,-1.8571436E4,7.583246E3,-1.0336672E4,1.4684864E4,-1.6397078E4,-3.4626285E4,-2.5659758E4,1.4861219E4,4.4580125E4,8.1883677E3,-7.07768E3,9.62774E3,-2.944906E4,-1.8677959E4,-5.1155024E3,-1.0644711E3,-1.1848198E4,-2.1896277E3,3.7077117E4,1.6296439E3,-1.5368948E4,-2.3957271E4,-6.618475E3,3.8114062E2,6.4597957E4,-5.758628E3,2.5977893E4,2.7664484E4,5.218285E4,7.198199E4,4.1374824E4,2.330858E4,9.173219E4,9.105299E3,6.066353E4,4.321382E4,2.5167107E4,5.141099E4,8.230575E4,3.3245496E4,8.752815E3,-4.1876626E3,5.34561E4,9.020487E4,3.9125375E4,-1.2583962E4,3.62994E4,6.305015E3,-1.953522E4,6.415219E4,3.1497256E3,1.3504015E4,3.388732E4,-1.6151301E4,2.6262674E4,3.2079664E4,6.312976E4,9.455098E4,2.8973908E4,1.2263253E4,5.3189805E4,3.7834316E4,6.2339E4],"categories":[],"categories_nodes":[],"categories_segments":[],"categories_sizes":[],"default_left":[0,0,0,0,0,0,0,0,0,0,0,0,0,0,0,0,0,0,0,0,0,0,0,0,0,0,0,0,0,0,0,0,0,0,0,0,0,0,0,0,0,0,0,0,0,0,0,0,0,0,0,0,0,0,0,0,0,0,0,0,0,0,0,0,0,0,0,0,0,0,0,0,0,0,0,0,0,0,0,0,0,0,0,0,0,0,0,0,0,0,0,0,0,0,0,0,0,0,0,0,0,0,0,0,0,0,0,0,0,0,0,0,0,0,0,0,0,0,0,0,0,0,0,0,0,0,0],"id":2,"left_children":[1,3,5,7,9,11,13,15,17,19,21,23,25,27,29,31,33,35,37,39,41,43,45,47,49,51,53,55,57,59,61,63,65,67,69,71,73,75,77,79,81,83,85,87,89,91,93,95,97,99,101,103,105,107,109,111,113,115,117,119,121,123,125,-1,-1,-1,-1,-1,-1,-1,-1,-1,-1,-1,-1,-1,-1,-1,-1,-1,-1,-1,-1,-1,-1,-1,-1,-1,-1,-1,-1,-1,-1,-1,-1,-1,-1,-1,-1,-1,-1,-1,-1,-1,-1,-1,-1,-1,-1,-1,-1,-1,-1,-1,-1,-1,-1,-1,-1,-1,-1,-1,-1,-1,-1,-1,-1],"loss_changes":[2.7165177E13,1.1119148E13,5.1296254E12,9.1986E12,1.489993E12,1.8247592E12,2.9320775E12,2.956523E12,4.956221E12,1.3088449E11,6.00228E11,1.2683051E12,7.923001E11,2.1089283E12,2.573043E11,2.6806017E12,6.4185644E11,3.2312915E12,7.855179E11,7.61563E10,1.4684455E10,2.6088466E11,3.5676435E11,4.0021472E11,1.3201551E12,5.776937E11,2.6781313E11,6.0491694E11,1.6789804E12,5.6886034E10,2.2717242E11,4.64494E11,1.8043482E12,1.4126075E11,2.5315036E11,1.1401162E12,1.3427291E12,4.013627E11,6.0398214E11,7.1791135E9,1.4208044E11,6.2174853E9,8.3368264E9,1.8284321E11,2.1881907E11,3.3333576E11,1.9939826E11,1.5755484E11,2.1025128E11,3.422143E11,4.32309E11,4.7266962E11,7.55617E10,1.3608773E11,6.4641434E10,2.4676067E11,4.4801976E11,1.2714015E12,3.8522867E11,3.4199896E10,7.442268E10,3.1242197E11,1.35164854E11,0E0,0E0,0E0,0E0,0E0,0E0,0E0,0E0,0E0,0E0,0E0,0E0,0E0,0E0,0E0,0E0,0E0,0E0,0E0,0E0,0E0,0E0,0E0,0E0,0E0,0E0,0E0,0E0,0E0,0E0,0E0,0E0,0E0,0E0,0E0,0E0,0E0,0E0,0E0,0E0,0E0,0E0,0E0,0E0,0E0,0E0,0E0,0E0,0E0,0E0,0E0,0E0,0E0,0E0,0E0,0E0,0E0,0E0,0E0,0E0,0E0,0E0,0E0,0E0],"parents":[2147483647,0,0,1,1,2,2,3,3,4,4,5,5,6,6,7,7,8,8,9,9,10,10,11,11,12,12,13,13,14,14,15,15,16,16,17,17,18,18,19,19,20,20,21,21,22,22,23,23,24,24,25,25,26,26,27,27,28,28,29,29,30,30,31,31,32,32,33,33,34,34,35,35,36,36,37,37,38,38,39,39,40,40,41,41,42,42,43,43,44,44,45,45,46,46,47,47,48,48,49,49,50,50,51,51,52,52,53,53,54,54,55,55,56,56,57,57,58,58,59,59,60,60,61,61,62,62],"right_children":[2,4,6,8,10,12,14,16,18,20,22,24,26,28,30,32,34,36,38,40,42,44,46,48,50,52,54,56,58,60,62,64,66,68,70,72,74,76,78,80,82,84,86,88,90,92,94,96,98,100,102,104,106,108,110,112,114,116,118,120,122,124,126,-1,-1,-1,-1,-1,-1,-1,-1,-1,-1,-1,-1,-1,-1,-1,-1,-1,-1,-1,-1,-1,-1,-1,-1,-1,-1,-1,-1,-1,-1,-1,-1,-1,-1,-1,-1,-1,-1,-1,-1,-1,-1,-1,-1,-1,-1,-1,-1,-1,-1,-1,-1,-1,-1,-1,-1,-1,-1,-1,-1,-1,-1,-1,-1],"split_conditions":[4.240196E-1,1.3E2,3.27E3,2.3529412E-1,1.6666667E-1,4.4972825E-1,1E0,4.5041E4,4.728261E-1,8.301E3,1.5E2,1.06E3,8.77451E-1,9.5E1,2.0380434E-1,1.2009804E-1,1.7255434E-1,1.3E3,4.137931E-2,6.127451E-2,3.043478E-1,7.172414E-2,3.3333334E-1,1E0,4.7826087E-1,1E0,1E0,6.960784E-1,1E0,6.691176E-1,8.37E3,6.127451E-2,1.07E3,3.52E3,9.2E1,7.5E1,4.6206897E-1,1E0,4.7826087E-1,1E0,2.413793E-1,8.3333336E-2,1E0,2.6086956E-1,2.009804E-1,2.4827586E-1,2.9347825E-1,3.3333334E-1,5.1715684E-1,2.1603261E-1,8.161765E-1,1.4E3,4.5380434E-1,2.3077E4,9.387255E-1,4.02E3,4.02E3,6.086956E-1,8.333333E-1,7.87E3,1E0,6.7401963E-1,1.05E2,-2.9442484E4,-1.8571436E4,7.583246E3,-1.0336672E4,1.4684864E4,-1.6397078E4,-3.4626285E4,-2.5659758E4,1.4861219E4,4.4580125E4,8.1883677E3,-7.07768E3,9.62774E3,-2.944906E4,-1.8677959E4,-5.1155024E3,-1.0644711E3,-1.1848198E4,-2.1896277E3,3.7077117E4,1.6296439E3,-1.5368948E4,-2.3957271E4,-6.618475E3,3.8114062E2,6.4597957E4,-5.758628E3,2.5977893E4,2.7664484E4,5.218285E4,7.198199E4,4.1374824E4,2.330858E4,9.173219E4,9.105299E3,6.066353E4,4.321382E4,2.5167107E4,5.141099E4,8.230575E4,3.3245496E4,8.752815E3,-4.1876626E3,5.34561E4,9.020487E4,3.9125375E4,-1.2583962E4,3.62994E4,6.305015E3,-1.953522E4,6.415219E4,3.1497256E3,1.3504015E4,3.388732E4,-1.6151301E4,2.6262674E4,3.2079664E4,6.312976E4,9.455098E4,2.8973908E4,1.2263253E4,5.3189805E4,3.7834316E4,6.2339E4],"split_indices":[2,50,0,2,1,12,48,49,12,0,50,0,2,50,12,2,12,0,13,2,11,13,1,25,11,48,23,2,23,2,0,2,0,0,50,50,13,18,11,34,13,2,45,11,2,13,12,1,2,12,2,0,12,49,2,0,0,11,1,0,20,2,50,0,0,0,0,0,0,0,0,0,0,0,0,0,0,0,0,0,0,0,0,0,0,0,0,0,0,0,0,0,0,0,0,0,0,0,0,0,0,0,0,0,0,0,0,0,0,0,0,0,0,0,0,0,0,0,0,0,0,0,0,0,0,0,0],"split_type":[0,0,0,0,0,0,0,0,0,0,0,0,0,0,0,0,0,0,0,0,0,0,0,0,0,0,0,0,0,0,0,0,0,0,0,0,0,0,0,0,0,0,0,0,0,0,0,0,0,0,0,0,0,0,0,0,0,0,0,0,0,0,0,0,0,0,0,0,0,0,0,0,0,0,0,0,0,0,0,0,0,0,0,0,0,0,0,0,0,0,0,0,0,0,0,0,0,0,0,0,0,0,0,0,0,0,0,0,0,0,0,0,0,0,0,0,0,0,0,0,0,0,0,0,0,0,0],"sum_hessian":[1.5926E4,1.2514E4,3.412E3,1.1987E4,5.27E2,1.317E3,2.095E3,7.074E3,4.913E3,8.2E1,4.45E2,8.63E2,4.54E2,1.882E3,2.13E2,5.574E3,1.5E3,3.299E3,1.614E3,5.4E1,2.8E1,1.18E2,3.27E2,1.27E2,7.36E2,4.16E2,3.8E1,4.06E2,1.476E3,4.5E1,1.68E2,1.806E3,3.768E3,3.22E2,1.178E3,4.72E2,2.827E3,2.17E2,1.397E3,2.2E1,3.2E1,7E0,2.1E1,2.4E1,9.4E1,2.15E2,1.12E2,7.6E1,5.1E1,4.41E2,2.95E2,3.71E2,4.5E1,3E1,8E0,2.82E2,1.24E2,1.296E3,1.8E2,2.8E1,1.7E1,7.1E1,9.7E1,4.9E2,1.316E3,6.01E2,3.167E3,1.3E1,3.09E2,6.05E2,5.73E2,2.12E2,2.6E2,2.144E3,6.83E2,1.91E2,2.6E1,9.71E2,4.26E2,1.3E1,9E0,1.7E1,1.5E1,5E0,2E0,1.7E1,4E0,5E0,1.9E1,2.7E1,6.7E1,9E1,1.25E2,8E1,3.2E1,4E0,7.2E1,9E0,4.2E1,1.44E2,2.97E2,2.42E2,5.3E1,9.5E1,2.76E2,2E0,4.3E1,2.1E1,9E0,4E0,4E0,3.8E1,2.44E2,1.1E1,1.13E2,8.98E2,3.98E2,1.59E2,2.1E1,8E0,2E1,1.4E1,3E0,4.4E1,2.7E1,4.5E1,5.2E1],"tree_param":{"num_deleted":"0","num_feature":"51","num_nodes":"127","size_leaf_vector":"1"}},{"base_weights":[1.9843321E2,-2.664624E4,3.3610492E4,-3.1762154E4,9.63271E4,6.7026086E4,1.0256315E4,-6.396645E3,-4.416541E4,3.252102E4,1.2394796E5,9.762521E4,4.163494E4,-3.2915594E4,2.4851025E4,-3.0125752E4,1.4173926E4,-3.2233938E3,-5.0537023E4,-2.360119E4,5.6461965E4,9.405401E4,1.4517977E5,1.030742E5,-1.8793992E4,2.4019066E4,9.394079E4,3.9857007E3,-5.6063227E4,7.7293335E3,6.800365E4,-4.011717E4,-1.1613842E4,3.2264795E4,-3.369114E4,-3.154265E4,2.0440004E4,-4.2896812E4,-7.325036E4,-1.0491322E4,-5.7395137E4,-2.0979896E4,9.260782E4,4.086054E4,1.5401266E5,1.665029E5,6.667826E4,1.4636445E5,8.685769E4,-3.8284297E4,9.5904875E4,3.1629123E4,-3.314575E4,1.7241248E5,7.773179E4,-7.7409673E3,9.422119E4,-6.0126188E4,8.182057E4,2.2882225E4,-3.0367225E4,1.5060702E5,5.5626688E4,-9.625522E3,-1.99034E4,1.3685331E4,-5.4955527E3,8.463053E3,3.415128E4,-1.6445309E4,-2.461291E3,-8.0615225E3,-2.661476E4,9.186788E3,-2.011191E4,-1.675286E4,-8.525779E3,-2.0724861E4,-3.5143105E4,-1.3705117E4,2.6271255E3,-1.9933125E4,2.2490625E3,-3.0890005E3,-2.2347805E4,3.5867496E4,-1.4831976E4,5.0287625E4,8.43919E3,5.372534E4,-3.0730832E4,5.203198E4,4.859522E3,4.3043812E4,-2.8582231E3,3.396568E4,5.4307297E4,2.8793318E4,5.5988047E3,-9.078963E3,-6.7103984E4,1.9148125E2,6.444857E4,6.5151206E3,2.3183332E4,3.7663137E4,-1.160862E4,4.0930613E4,8.424326E4,1.9634777E4,5.7596027E4,1.6317071E4,-5.0872515E3,5.717352E4,8.35248E3,-1.53339E4,-3.1592193E4,3.174301E4,-1.0377727E4,2.9522583E3,1.7116998E4,-1.4735261E4,-7.898349E2,3.375882E4,6.8351234E4,1.4173489E4,4.990588E4],"categories":[],"categories_nodes":[],"categories_segments":[],"categories_sizes":[],"default_left":[0,0,0,0,0,0,0,0,0,0,0,0,0,0,0,0,0,0,0,0,0,0,0,0,0,0,0,0,0,0,0,0,0,0,0,0,0,0,0,0,0,0,0,0,0,0,0,0,0,0,0,0,0,0,0,0,0,0,0,0,0,0,0,0,0,0,0,0,0,0,0,0,0,0,0,0,0,0,0,0,0,0,0,0,0,0,0,0,0,0,0,0,0,0,0,0,0,0,0,0,0,0,0,0,0,0,0,0,0,0,0,0,0,0,0,0,0,0,0,0,0,0,0,0,0,0,0],"id":3,"left_children":[1,3,5,7,9,11,13,15,17,19,21,23,25,27,29,31,33,35,37,39,41,43,45,47,49,51,53,55,57,59,61,63,65,67,69,71,73,75,77,79,81,83,85,87,89,91,93,95,97,99,101,103,105,107,109,111,113,115,117,119,121,123,125,-1,-1,-1,-1,-1,-1,-1,-1,-1,-1,-1,-1,-1,-1,-1,-1,-1,-1,-1,-1,-1,-1,-1,-1,-1,-1,-1,-1,-1,-1,-1,-1,-1,-1,-1,-1,-1,-1,-1,-1,-1,-1,-1,-1,-1,-1,-1,-1,-1,-1,-1,-1,-1,-1,-1,-1,-1,-1,-1,-1,-1,-1,-1,-1],"loss_changes":[1.4286391E13,5.5594556E12,5.536986E12,2.6676528E12,6.180889E11,2.263843E12,2.6332983E12,1.360333E12,1.4854715E12,1.464434E11,1.4248208E11,8.412044E11,1.4692408E12,9.02235E11,2.3068903E12,2.3887269E11,1.2939065E12,5.1530442E11,8.520372E11,1.4017978E10,2.1468227E11,3.2859482E11,2.265915E11,8.7463716E11,1.378026E11,5.2134124E11,4.9792103E11,4.324593E11,3.6850015E11,1.2920546E12,8.9847235E11,1.7482724E11,1.7542772E11,3.5531824E11,2.2031437E11,9.10839E10,3.752868E11,6.900191E11,2.1855155E11,1.7334995E10,5.7827615E9,1.3525206E10,2.0498029E11,8.726574E10,3.3339684E11,1.1292639E11,1.8865278E11,3.7354943E11,5.71638E11,7.055864E10,1.0182798E11,4.7613208E11,1.29032634E11,2.2687764E11,4.575536E11,2.0821598E11,2.953131E11,2.5157698E11,5.6721244E10,7.129742E11,3.3112942E11,3.1254774E11,7.095441E11,0E0,0E0,0E0,0E0,0E0,0E0,0E0,0E0,0E0,0E0,0E0,0E0,0E0,0E0,0E0,0E0,0E0,0E0,0E0,0E0,0E0,0E0,0E0,0E0,0E0,0E0,0E0,0E0,0E0,0E0,0E0,0E0,0E0,0E0,0E0,0E0,0E0,0E0,0E0,0E0,0E0,0E0,0E0,0E0,0E0,0E0,0E0,0E0,0E0,0E0,0E0,0E0,0E0,0E0,0E0,0E0,0E0,0E0,0E0,0E0,0E0,0E0,0E0,0E0],"parents":[2147483647,0,0,1,1,2,2,3,3,4,4,5,5,6,6,7,7,8,8,9,9,10,10,11,11,12,12,13,13,14,14,15,15,16,16,17,17,18,18,19,19,20,20,21,21,22,22,23,23,24,24,25,25,26,26,27,27,28,28,29,29,30,30,31,31,32,32,33,33,34,34,35,35,36,36,37,37,38,38,39,39,40,40,41,41,42,42,43,43,44,44,45,45,46,46,47,47,48,48,49,49,50,50,51,51,52,52,53,53,54,54,55,55,56,56,57,57,58,58,59,59,60,60,61,61,62,62],"right_children":[2,4,6,8,10,12,14,16,18,20,22,24,26,28,30,32,34,36,38,40,42,44,46,48,50,52,54,56,58,60,62,64,66,68,70,72,74,76,78,80,82,84,86,88,90,92,94,96,98,100,102,104,106,108,110,112,114,116,118,120,122,124,126,-1,-1,-1,-1,-1,-1,-1,-1,-1,-1,-1,-1,-1,-1,-1,-1,-1,-1,-1,-1,-1,-1,-1,-1,-1,-1,-1,-1,-1,-1,-1,-1,-1,-1,-1,-1,-1,-1,-1,-1,-1,-1,-1,-1,-1,-1,-1,-1,-1,-1,-1,-1,-1,-1,-1,-1,-1,-1,-1,-1,-1,-1,-1,-1],"split_conditions":[2.7941176E-1,1.5E2,3.2003E4,1.5310344E-1,1.0539216E-1,1E0,2.6086956E-1,1.5931372E-1,1.07E3,2.413793E-1,2.413793E-1,1E0,5.392157E-1,3.0570653E-1,5.0980395E-1,2.5E-1,4.4085E4,1.3480392E-1,4.4064E4,8.301E3,6.8627454E-2,1.6176471E-1,1E0,2.1603261E-1,5E-1,1E0,2.2554348E-1,7.867647E-1,1E0,5.407609E-1,1.9429348E-1,4.4085E4,1.07E3,1E0,6.3013E4,2.1015E4,1E0,1.6176471E-1,1E0,6.896552E-2,1E0,1.6666667E-1,4.413793E-1,8.423913E-2,2.0413794E-1,1E0,3.3931035E-1,3.9215687E-1,1E0,5.9068626E-1,5E-1,1.21E2,2.867647E-1,2.505E4,9.019608E-1,4.03E3,2.1603261E-1,1E0,1.05E2,1.09E2,8.97E3,6.7401963E-1,9.387255E-1,-9.625522E3,-1.99034E4,1.3685331E4,-5.4955527E3,8.463053E3,3.415128E4,-1.6445309E4,-2.461291E3,-8.0615225E3,-2.661476E4,9.186788E3,-2.011191E4,-1.675286E4,-8.525779E3,-2.0724861E4,-3.5143105E4,-1.3705117E4,2.6271255E3,-1.9933125E4,2.2490625E3,-3.0890005E3,-2.2347805E4,3.5867496E4,-1.4831976E4,5.0287625E4,8.43919E3,5.372534E4,-3.0730832E4,5.203198E4,4.859522E3,4.3043812E4,-2.8582231E3,3.396568E4,5.4307297E4,2.8793318E4,5.5988047E3,-9.078963E3,-6.7103984E4,1.9148125E2,6.444857E4,6.5151206E3,2.3183332E4,3.7663137E4,-1.160862E4,4.0930613E4,8.424326E4,1.9634777E4,5.7596027E4,1.6317071E4,-5.0872515E3,5.717352E4,8.35248E3,-1.53339E4,-3.1592193E4,3.174301E4,-1.0377727E4,2.9522583E3,1.7116998E4,-1.4735261E4,-7.898349E2,3.375882E4,6.8351234E4,1.4173489E4,4.990588E4],"split_indices":[2,50,49,13,2,36,11,2,0,13,13,46,2,12,2,7,49,2,49,0,2,2,15,12,7,23,12,2,1,12,12,49,0,44,49,49,23,2,23,13,3,1,13,12,13,22,13,2,23,2,1,50,2,49,2,0,12,23,50,50,0,2,2,0,0,0,0,0,0,0,0,0,0,0,0,0,0,0,0,0,0,0,0,0,0,0,0,0,0,0,0,0,0,0,0,0,0,0,0,0,0,0,0,0,0,0,0,0,0,0,0,0,0,0,0,0,0,0,0,0,0,0,0,0,0,0,0],"split_type":[0,0,0,0,0,0,0,0,0,0,0,0,0,0,0,0,0,0,0,0,0,0,0,0,0,0,0,0,0,0,0,0,0,0,0,0,0,0,0,0,0,0,0,0,0,0,0,0,0,0,0,0,0,0,0,0,0,0,0,0,0,0,0,0,0,0,0,0,0,0,0,0,0,0,0,0,0,0,0,0,0,0,0,0,0,0,0,0,0,0,0,0,0,0,0,0,0,0,0,0,0,0,0,0,0,0,0,0,0,0,0,0,0,0,0,0,0,0,0,0,0,0,0,0,0,0,0],"sum_hessian":[1.5926E4,8.831E3,7.095E3,8.479E3,3.52E2,2.918E3,4.177E3,2.785E3,5.694E3,1.07E2,2.45E2,1.322E3,1.596E3,1.055E3,3.122E3,1.293E3,1.492E3,7.67E2,4.927E3,3.2E1,7.5E1,1.04E2,1.41E2,1.263E3,5.9E1,1.195E3,4.01E2,4.07E2,6.48E2,2.236E3,8.86E2,8.39E2,4.54E2,1.083E3,4.09E2,3.49E2,4.18E2,3.689E3,1.238E3,2.4E1,8E0,2.4E1,5.1E1,5.6E1,4.8E1,1.1E2,3.1E1,3.42E2,9.21E2,5.1E1,8E0,1.055E3,1.4E2,6.7E1,3.34E2,3.61E2,4.6E1,6.3E2,1.8E1,1.6E3,6.36E2,1.14E2,7.72E2,6.44E2,1.95E2,4.7E1,4.07E2,1.033E3,5E1,2.23E2,1.86E2,3.24E2,2.5E1,3.75E2,4.3E1,1.946E3,1.743E3,1.133E3,1.05E2,8E0,1.6E1,7E0,1E0,2.1E1,3E0,4.3E1,8E0,4E0,5.2E1,4.4E1,4E0,1.05E2,5E0,1.5E1,1.6E1,1.77E2,1.65E2,8.12E2,1.09E2,5E1,1E0,5E0,3E0,8.68E2,1.87E2,4E0,1.36E2,5.2E1,1.5E1,3.03E2,3.1E1,4.6E1,3.15E2,1.8E1,2.8E1,5.27E2,1.03E2,1.5E1,3E0,1.159E3,4.41E2,3.79E2,2.57E2,7.8E1,3.6E1,7.19E2,5.3E1],"tree_param":{"num_deleted":"0","num_feature":"51","num_nodes":"127","size_leaf_vector":"1"}},{"base_weights":[1.773593E2,-1.0490373E4,4.2724617E4,-1.4272733E4,5.710894E4,7.0902875E4,2.3585965E4,-2.821227E4,5.514938E2,7.2503877E3,7.097629E4,8.704964E4,-1.2732423E3,5.3814077E3,5.958781E4,-1.7198969E4,-4.4176297E4,2.7869033E4,-1.4770104E4,2.6475752E4,-3.8793105E4,3.1301826E4,9.264145E4,1.0392443E5,3.1719467E4,3.568774E4,-2.334206E4,-6.7376064E3,5.225197E4,8.923115E4,2.7839775E4,-2.2617712E2,-2.5751166E4,-5.334138E4,-2.919096E4,6.1448332E4,1.5507178E4,1.2906177E4,-2.6805908E4,-9.602353E3,6.2054312E4,-4.5544754E4,6.866101E4,1.245796E4,7.549705E4,2.2373517E5,8.759368E4,1.0811359E5,-8.318389E3,1.0588461E5,4.7980522E3,-2.5417076E4,8.841095E4,-4.6663137E4,1.2028587E4,3.008691E4,-2.0771184E4,1.27842766E5,3.626198E4,5.2886605E4,1.2190864E5,7.97406E4,2.0656002E4,-6.9533135E3,3.7700298E3,-1.3604306E4,-4.987065E3,-1.3456397E4,-2.0434418E4,-9.5361975E2,-1.095307E4,2.4745367E4,5.947541E3,-1.8162683E3,8.2892E3,1.4288641E4,1.5764526E3,-1.1213618E4,1.6835878E3,5.1250523E1,-1.722041E4,-3.329493E3,3.0978043E4,5.0445815E3,-1.4724941E4,2.0626875E2,3.0691188E4,1.782378E4,-2.2965806E3,4.1240703E4,1.4841444E4,5.7680347E3,7.217369E4,2.5152748E4,5.97742E4,3.0452922E4,5.2378562E4,-1.0166023E4,3.7890223E4,5.7415535E4,2.0174564E4,-3.1353608E3,4.9384605E4,2.961005E4,-1.3457176E4,1.4828448E4,5.6868742E4,-2.5871693E4,-9.289581E3,1.9023688E3,5.213741E4,1.9186867E4,-2.195746E3,2.1693877E4,-7.927036E3,4.310416E4,2.8515784E2,6.365347E4,8.542766E3,2.8083838E4,1.1344479E4,3.8947734E4,-2.5316129E4,2.956122E3,3.780358E4],"categories":[],"categories_nodes":[],"categories_segments":[],"categories_sizes":[],"default_left":[0,0,0,0,0,0,0,0,0,0,0,0,0,0,0,0,0,0,0,0,0,0,0,0,0,0,0,0,0,0,0,0,0,0,0,0,0,0,0,0,0,0,0,0,0,0,0,0,0,0,0,0,0,0,0,0,0,0,0,0,0,0,0,0,0,0,0,0,0,0,0,0,0,0,0,0,0,0,0,0,0,0,0,0,0,0,0,0,0,0,0,0,0,0,0,0,0,0,0,0,0,0,0,0,0,0,0,0,0,0,0,0,0,0,0,0,0,0,0,0,0,0,0,0,0],"id":4,"left_children":[1,3,5,7,9,11,13,15,17,19,21,23,25,27,29,31,33,35,37,39,41,43,45,47,49,51,53,55,57,59,61,63,65,67,69,71,73,75,77,79,81,83,85,87,89,91,93,95,97,99,101,103,105,107,109,111,113,115,117,119,121,-1,123,-1,-1,-1,-1,-1,-1,-1,-1,-1,-1,-1,-1,-1,-1,-1,-1,-1,-1,-1,-1,-1,-1,-1,-1,-1,-1,-1,-1,-1,-1,-1,-1,-1,-1,-1,-1,-1,-1,-1,-1,-1,-1,-1,-1,-1,-1,-1,-1,-1,-1,-1,-1,-1,-1,-1,-1,-1,-1,-1,-1,-1,-1],"loss_changes":[7.2294387E12,3.2569633E12,1.7202927E12,2.4923346E12,4.661843E11,1.5046562E12,1.246901E12,1.0921171E12,2.447245E12,1.3203711E11,4.509443E11,9.8174186E11,1.941504E11,7.189037E11,5.9889025E11,5.3416342E11,3.4687838E11,8.7117726E11,1.2481621E12,1.3537462E11,3.504882E10,1.5562755E11,2.0605279E11,3.8082393E11,4.946563E11,2.8897336E11,1.23468644E11,5.2050526E11,3.096251E11,3.8547672E11,5.244443E11,3.6261547E11,4.369398E11,1.9416325E11,1.836109E11,4.9307596E11,4.019382E11,3.0155584E11,8.951257E11,2.4768686E10,1.6090469E11,1.009279E10,6.790141E9,1.2606126E11,8.351908E10,3.6710777E10,1.2150977E11,3.2428576E11,1.0753961E11,2.0515422E11,4.4770876E11,1.0576755E11,1.7990238E11,5.3242642E10,5.409812E10,3.5267124E11,3.8546417E11,9.029943E10,2.8981343E11,9.3442376E10,2.9351136E11,0E0,3.4245915E11,0E0,0E0,0E0,0E0,0E0,0E0,0E0,0E0,0E0,0E0,0E0,0E0,0E0,0E0,0E0,0E0,0E0,0E0,0E0,0E0,0E0,0E0,0E0,0E0,0E0,0E0,0E0,0E0,0E0,0E0,0E0,0E0,0E0,0E0,0E0,0E0,0E0,0E0,0E0,0E0,0E0,0E0,0E0,0E0,0E0,0E0,0E0,0E0,0E0,0E0,0E0,0E0,0E0,0E0,0E0,0E0,0E0,0E0,0E0,0E0,0E0,0E0],"parents":[2147483647,0,0,1,1,2,2,3,3,4,4,5,5,6,6,7,7,8,8,9,9,10,10,11,11,12,12,13,13,14,14,15,15,16,16,17,17,18,18,19,19,20,20,21,21,22,22,23,23,24,24,25,25,26,26,27,27,28,28,29,29,30,30,31,31,32,32,33,33,34,34,35,35,36,36,37,37,38,38,39,39,40,40,41,41,42,42,43,43,44,44,45,45,46,46,47,47,48,48,49,49,50,50,51,51,52,52,53,53,54,54,55,55,56,56,57,57,58,58,59,59,60,60,62,62],"right_children":[2,4,6,8,10,12,14,16,18,20,22,24,26,28,30,32,34,36,38,40,42,44,46,48,50,52,54,56,58,60,62,64,66,68,70,72,74,76,78,80,82,84,86,88,90,92,94,96,98,100,102,104,106,108,110,112,114,116,118,120,122,-1,124,-1,-1,-1,-1,-1,-1,-1,-1,-1,-1,-1,-1,-1,-1,-1,-1,-1,-1,-1,-1,-1,-1,-1,-1,-1,-1,-1,-1,-1,-1,-1,-1,-1,-1,-1,-1,-1,-1,-1,-1,-1,-1,-1,-1,-1,-1,-1,-1,-1,-1,-1,-1,-1,-1,-1,-1,-1,-1,-1,-1,-1,-1],"split_conditions":[4.3137255E-1,1.26E2,1E0,2.0833333E-1,1.0539216E-1,1E0,1.11E2,3.138587E-1,2.6902175E-1,8.301E3,6.75E3,5.2011E4,2.4104E4,7.1813726E-1,3.3793104E-1,2.02E3,1E0,2.07E3,2.4104E4,2.7172413E-1,1.004902E-1,5.652174E-1,2.3448275E-2,1E0,4.02E3,5E-1,7.134E3,2.2758621E-1,2.49E3,5.294118E-1,1.19E3,7.2E1,9.8E1,5.1766306E-1,6.2068965E-2,1E0,3.043478E-1,1.06E3,6.5217394E-1,2.551724E-1,7.3529415E-2,6.3858695E-2,1E0,1.9021739E-1,1.65E3,1.2009804E-1,1E0,9.019608E-1,3.4375E-1,2.540761E-1,1E0,1.724138E-1,1.1E2,5.8003E4,1E0,3.0298913E-1,1.348E3,8.551724E-1,1.3722827E-1,2.3448275E-2,7.336956E-1,7.97406E4,1.31E2,-6.9533135E3,3.7700298E3,-1.3604306E4,-4.987065E3,-1.3456397E4,-2.0434418E4,-9.5361975E2,-1.095307E4,2.4745367E4,5.947541E3,-1.8162683E3,8.2892E3,1.4288641E4,1.5764526E3,-1.1213618E4,1.6835878E3,5.1250523E1,-1.722041E4,-3.329493E3,3.0978043E4,5.0445815E3,-1.4724941E4,2.0626875E2,3.0691188E4,1.782378E4,-2.2965806E3,4.1240703E4,1.4841444E4,5.7680347E3,7.217369E4,2.5152748E4,5.97742E4,3.0452922E4,5.2378562E4,-1.0166023E4,3.7890223E4,5.7415535E4,2.0174564E4,-3.1353608E3,4.9384605E4,2.961005E4,-1.3457176E4,1.4828448E4,5.6868742E4,-2.5871693E4,-9.289581E3,1.9023688E3,5.213741E4,1.9186867E4,-2.195746E3,2.1693877E4,-7.927036E3,4.310416E4,2.8515784E2,6.365347E4,8.542766E3,2.8083838E4,1.1344479E4,3.8947734E4,-2.5316129E4,2.956122E3,3.780358E4],"split_indices":[2,50,36,2,2,41,50,12,12,0,0,49,49,2,13,0,6,0,49,13,2,11,13,46,0,1,0,13,0,2,0,50,50,12,13,20,11,0,11,13,2,12,6,12,0,2,44,2,7,12,32,13,50,49,8,12,0,13,12,13,12,0,50,0,0,0,0,0,0,0,0,0,0,0,0,0,0,0,0,0,0,0,0,0,0,0,0,0,0,0,0,0,0,0,0,0,0,0,0,0,0,0,0,0,0,0,0,0,0,0,0,0,0,0,0,0,0,0,0,0,0,0,0,0,0],"split_type":[0,0,0,0,0,0,0,0,0,0,0,0,0,0,0,0,0,0,0,0,0,0,0,0,0,0,0,0,0,0,0,0,0,0,0,0,0,0,0,0,0,0,0,0,0,0,0,0,0,0,0,0,0,0,0,0,0,0,0,0,0,0,0,0,0,0,0,0,0,0,0,0,0,0,0,0,0,0,0,0,0,0,0,0,0,0,0,0,0,0,0,0,0,0,0,0,0,0,0,0,0,0,0,0,0,0,0,0,0,0,0,0,0,0,0,0,0,0,0,0,0,0,0,0,0],"sum_hessian":[1.5926E4,1.2734E4,3.192E3,1.206E4,6.74E2,1.29E3,1.902E3,6.215E3,5.845E3,1.47E2,5.27E2,1.054E3,2.36E2,1.264E3,6.38E2,3.679E3,2.536E3,2.1E3,3.745E3,1.04E2,4.3E1,1.87E2,3.4E2,8.07E2,2.47E2,8.8E1,1.48E2,1.005E3,2.59E2,3.29E2,3.09E2,1.233E3,2.446E3,1.572E3,9.64E2,5.64E2,1.536E3,1.135E3,2.61E3,5.2E1,5.2E1,4.1E1,2E0,1.32E2,5.5E1,1.1E1,3.29E2,7.78E2,2.9E1,6.5E1,1.82E2,4.1E1,4.7E1,8.9E1,5.9E1,2.77E2,7.28E2,4.4E1,2.15E2,1.57E2,1.72E2,8E0,3.01E2,4.41E2,7.92E2,7.76E2,1.67E3,1.001E3,5.71E2,2.12E2,7.52E2,3.74E2,1.9E2,5.53E2,9.83E2,2.04E2,9.31E2,1.968E3,6.42E2,4.4E1,8E0,1.9E1,3.3E1,2E0,3.9E1,1E0,1E0,3.9E1,9.3E1,1.5E1,4E1,1E0,1E1,3.2E2,9E0,7.1E2,6.8E1,2.5E1,4E0,1.9E1,4.6E1,1.67E2,1.5E1,5E0,3.6E1,3.5E1,1.2E1,2.4E1,6.5E1,5.8E1,1E0,1.45E2,1.32E2,4.1E1,6.87E2,3.9E1,5E0,8E0,2.07E2,4.1E1,1.16E2,1.66E2,6E0,2.74E2,2.7E1],"tree_param":{"num_deleted":"0","num_feature":"51","num_nodes":"125","size_leaf_vector":"1"}},{"base_weights":[1.8085786E2,-1.164496E4,2.1022652E4,-1.4317168E4,4.5395562E4,3.2703695E4,-6.0905483E3,1.2899638E4,-1.9553525E4,1.28964795E4,6.2474285E4,5.713752E4,1.8964156E4,1.441278E3,-7.1654945E4,-5.7197637E3,3.303498E4,9.475227E3,-2.3651832E4,3.1661566E4,-3.076646E4,6.668261E4,-5.3386883E4,5.23137E4,1.487335E5,2.6441727E4,-2.7844932E4,3.3195117E4,-9.472781E3,-4.593742E4,-8.2691445E4,-1.3652698E4,1.620442E4,6.0573906E4,2.3567883E4,3.3068245E3,9.891363E4,-5.6922637E4,-1.9983604E4,5.0044234E4,-5.448179E4,-3.615136E4,6.205748E4,8.092309E4,4.3245785E4,4.463314E4,-1.1484301E5,9.822965E4,4.435002E4,2.4379292E5,5.7264734E4,2.0196629E4,7.708758E4,-3.1088236E4,1.0065672E5,2.3083371E4,8.0390555E4,-2.8629248E4,2.303963E4,4.0208332E4,-5.5084793E4,-9.928997E4,-6.5043832E4,-1.2566281E4,-2.8963599E3,1.5907353E4,-2.8657468E2,3.7840735E2,2.837861E4,6.1763384E3,3.0989674E4,-3.7351804E3,8.534704E3,4.1562773E4,-9.332684E3,-1.791995E4,1.6462294E2,7.521093E3,-6.7605454E3,-3.824709E3,3.313101E4,-2.2578959E4,1.4237888E4,-6.3711177E3,-1.586856E4,1.8383579E3,2.608751E4,5.8730215E4,2.1655871E4,1.6135521E4,-1.2102461E4,-4.897738E4,4.087145E4,3.9051535E4,1.8163875E4,9.886551E3,2.2049082E4,8.191597E4,2.6323246E4,-3.361578E3,2.9301734E4,1.9641688E3,1.411696E4,3.3714164E4,1.7852594E4,-1.020856E4,2.943834E4,4.6317207E3,4.9722906E4,9.328103E3,-9.331153E3,1.1937465E4,4.426984E4,1.0137516E4,-1.14358E4,2.522129E4,3.767163E3,-9.790781E3,-2.945082E4,-3.3626703E4,-2.0689143E4,-2.044358E4,5.91E3],"categories":[],"categories_nodes":[],"categories_segments":[],"categories_sizes":[],"default_left":[0,0,0,0,0,0,0,0,0,0,0,0,0,0,0,0,0,0,0,0,0,0,0,0,0,0,0,0,0,0,0,0,0,0,0,0,0,0,0,0,0,0,0,0,0,0,0,0,0,0,0,0,0,0,0,0,0,0,0,0,0,0,0,0,0,0,0,0,0,0,0,0,0,0,0,0,0,0,0,0,0,0,0,0,0,0,0,0,0,0,0,0,0,0,0,0,0,0,0,0,0,0,0,0,0,0,0,0,0,0,0,0,0,0,0,0,0,0,0,0,0,0,0],"id":5,"left_children":[1,3,5,7,9,11,13,15,17,19,21,23,25,27,29,31,33,35,37,39,41,43,45,47,49,51,53,55,57,59,61,63,65,67,69,71,73,75,77,79,81,83,85,87,89,-1,91,93,95,97,99,101,103,105,107,109,111,113,115,-1,117,119,121,-1,-1,-1,-1,-1,-1,-1,-1,-1,-1,-1,-1,-1,-1,-1,-1,-1,-1,-1,-1,-1,-1,-1,-1,-1,-1,-1,-1,-1,-1,-1,-1,-1,-1,-1,-1,-1,-1,-1,-1,-1,-1,-1,-1,-1,-1,-1,-1,-1,-1,-1,-1,-1,-1,-1,-1,-1,-1,-1,-1],"loss_changes":[3.9257928E12,1.5495836E12,1.8263517E12,1.3838065E12,2.5173885E11,1.3518258E12,8.5786794E11,5.876698E11,9.6886745E11,1.30429665E11,1.4885939E11,6.328906E11,9.041334E11,5.4060663E11,4.7007203E10,1.4196857E11,1.9488978E11,5.557785E11,8.6965354E11,1.7849994E11,2.6236142E10,9.262085E10,1.537524E11,4.9988842E11,6.120769E11,7.025007E11,1.5149934E11,1.8855831E11,7.2375704E11,9.9570565E10,2.9864493E10,6.721541E10,1.3715569E11,3.8731737E11,1.3140764E11,3.743445E11,3.392327E11,1.143923E11,7.3951006E11,3.5029405E11,4.5941674E10,1.0363904E10,3.645222E9,1.6446954E11,9.995533E10,0E0,1.3164663E11,2.3646713E11,3.8848876E11,1.3585233E11,1.0622965E11,7.267025E11,1.4469313E11,1.35555875E11,4.735959E10,1.4420561E11,1.850364E11,4.3431815E11,2.7467922E11,0E0,4.902496E10,1.6334914E10,1.7900634E10,0E0,0E0,0E0,0E0,0E0,0E0,0E0,0E0,0E0,0E0,0E0,0E0,0E0,0E0,0E0,0E0,0E0,0E0,0E0,0E0,0E0,0E0,0E0,0E0,0E0,0E0,0E0,0E0,0E0,0E0,0E0,0E0,0E0,0E0,0E0,0E0,0E0,0E0,0E0,0E0,0E0,0E0,0E0,0E0,0E0,0E0,0E0,0E0,0E0,0E0,0E0,0E0,0E0,0E0,0E0,0E0,0E0,0E0,0E0,0E0],"parents":[2147483647,0,0,1,1,2,2,3,3,4,4,5,5,6,6,7,7,8,8,9,9,10,10,11,11,12,12,13,13,14,14,15,15,16,16,17,17,18,18,19,19,20,20,21,21,22,22,23,23,24,24,25,25,26,26,27,27,28,28,29,29,30,30,31,31,32,32,33,33,34,34,35,35,36,36,37,37,38,38,39,39,40,40,41,41,42,42,43,43,44,44,46,46,47,47,48,48,49,49,50,50,51,51,52,52,53,53,54,54,55,55,56,56,57,57,58,58,60,60,61,61,62,62],"right_children":[2,4,6,8,10,12,14,16,18,20,22,24,26,28,30,32,34,36,38,40,42,44,46,48,50,52,54,56,58,60,62,64,66,68,70,72,74,76,78,80,82,84,86,88,90,-1,92,94,96,98,100,102,104,106,108,110,112,114,116,-1,118,120,122,-1,-1,-1,-1,-1,-1,-1,-1,-1,-1,-1,-1,-1,-1,-1,-1,-1,-1,-1,-1,-1,-1,-1,-1,-1,-1,-1,-1,-1,-1,-1,-1,-1,-1,-1,-1,-1,-1,-1,-1,-1,-1,-1,-1,-1,-1,-1,-1,-1,-1,-1,-1,-1,-1,-1,-1,-1,-1,-1,-1],"split_conditions":[3.259804E-1,1.34E2,4.5035E4,1.3994566E-1,1.1764706E-1,1E0,1E0,1.7156863E-1,1.07E3,8.301E3,1E0,4.4021E4,1E0,4.03E3,1E0,3.4375E-1,2.06E3,2.9656863E-1,8.1E1,4.3310344E-1,4.375E-1,1E0,1.888587E-1,1.6983695E-1,9.05E3,4.3018E4,1.31E2,7.5980395E-1,4.7826087E-1,9.6551724E-2,6.100544E-1,7.3529415E-2,2.018E3,7.5E1,1.23E2,1.04E3,2.1875E-1,6.3076E4,1.3E3,2.7172413E-1,4.7724137E-1,8.5784316E-2,1.6666667E-1,8.423913E-2,4.4275862E-1,4.463314E4,1E0,1.05E2,6.2009805E-1,1E0,2.6086956E-1,4.7826087E-1,9.06E3,1E0,4.6206897E-1,6.222826E-1,1E0,1.2771739E-1,2.2826087E-1,4.0208332E4,1E0,5.588235E-1,9.214E4,-1.2566281E4,-2.8963599E3,1.5907353E4,-2.8657468E2,3.7840735E2,2.837861E4,6.1763384E3,3.0989674E4,-3.7351804E3,8.534704E3,4.1562773E4,-9.332684E3,-1.791995E4,1.6462294E2,7.521093E3,-6.7605454E3,-3.824709E3,3.313101E4,-2.2578959E4,1.4237888E4,-6.3711177E3,-1.586856E4,1.8383579E3,2.608751E4,5.8730215E4,2.1655871E4,1.6135521E4,-1.2102461E4,-4.897738E4,4.087145E4,3.9051535E4,1.8163875E4,9.886551E3,2.2049082E4,8.191597E4,2.6323246E4,-3.361578E3,2.9301734E4,1.9641688E3,1.411696E4,3.3714164E4,1.7852594E4,-1.020856E4,2.943834E4,4.6317207E3,4.9722906E4,9.328103E3,-9.331153E3,1.1937465E4,4.426984E4,1.0137516E4,-1.14358E4,2.522129E4,3.767163E3,-9.790781E3,-2.945082E4,-3.3626703E4,-2.0689143E4,-2.044358E4,5.91E3],"split_indices":[2,50,49,12,2,36,23,2,0,0,22,49,18,0,36,7,0,2,50,13,7,20,12,12,0,49,50,2,11,13,12,2,0,50,50,0,7,49,0,13,13,2,1,12,13,0,44,50,2,22,11,11,0,1,13,12,14,12,12,0,3,2,49,0,0,0,0,0,0,0,0,0,0,0,0,0,0,0,0,0,0,0,0,0,0,0,0,0,0,0,0,0,0,0,0,0,0,0,0,0,0,0,0,0,0,0,0,0,0,0,0,0,0,0,0,0,0,0,0,0,0,0,0],"split_type":[0,0,0,0,0,0,0,0,0,0,0,0,0,0,0,0,0,0,0,0,0,0,0,0,0,0,0,0,0,0,0,0,0,0,0,0,0,0,0,0,0,0,0,0,0,0,0,0,0,0,0,0,0,0,0,0,0,0,0,0,0,0,0,0,0,0,0,0,0,0,0,0,0,0,0,0,0,0,0,0,0,0,0,0,0,0,0,0,0,0,0,0,0,0,0,0,0,0,0,0,0,0,0,0,0,0,0,0,0,0,0,0,0,0,0,0,0,0,0,0,0,0,0],"sum_hessian":[1.5926E4,1.0161E4,5.765E3,9.707E3,4.54E2,4.029E3,1.736E3,1.566E3,8.141E3,1.57E2,2.97E2,1.449E3,2.58E3,1.558E3,1.78E2,8.14E2,7.52E2,1.007E3,7.134E3,1.1E2,4.7E1,2.87E2,1E1,1.378E3,7.1E1,2.225E3,3.55E2,3.98E2,1.16E3,5.5E1,1.23E2,5.98E2,2.16E2,1.91E2,5.61E2,9.43E2,6.4E1,7.07E2,6.427E3,9.1E1,1.9E1,4.5E1,2E0,1.77E2,1.1E2,2E0,8E0,2.02E2,1.176E3,3.4E1,3.7E1,1.982E3,2.43E2,3.47E2,8E0,3.29E2,6.9E1,7.3E2,4.3E2,2E0,5.3E1,6.1E1,6.2E1,7.3E1,5.25E2,6.8E1,1.48E2,7E1,1.21E2,5.42E2,1.9E1,5.8E2,3.63E2,4.9E1,1.5E1,6.74E2,3.3E1,3.44E2,6.083E3,4.5E1,4.6E1,1.6E1,3E0,2.5E1,2E1,1E0,1E0,1.1E1,1.66E2,9.8E1,1.2E1,7E0,1E0,1.08E2,9.4E1,8.47E2,3.29E2,2.8E1,6E0,1.4E1,2.3E1,1.315E3,6.67E2,7.9E1,1.64E2,3.4E2,7E0,4E0,4E0,2.87E2,4.2E1,4.4E1,2.5E1,9.6E1,6.34E2,6.2E1,3.68E2,3.6E1,1.7E1,4.1E1,2E1,6E1,2E0],"tree_param":{"num_deleted":"0","num_feature":"51","num_nodes":"123","size_leaf_vector":"1"}},{"base_weights":[1.6516756E2,-5.100733E3,2.7270975E4,-1.8320331E3,-4.3950695E4,2.1164582E4,8.078911E4,1.4199474E3,-4.0214324E4,-4.9394438E4,-5.6739062E3,7.5987E4,1.496991E4,1.0251227E5,4.3328926E4,1.2008086E4,-1.1197723E4,-5.6488332E4,-7.8944966E3,-4.6567715E4,-8.3008914E4,-1.3014244E4,1.2516551E5,5.2861918E4,1.11608195E5,-5.9791656E2,4.186426E4,1.8999488E5,9.451366E4,9.2272734E4,8.582736E3,-1.8714902E4,1.7556506E4,-1.739514E4,5.912944E3,-2.06385E4,-6.044268E4,-4.685007E4,7.1221533E3,-5.1445688E4,-3.86884E3,-1.0723985E5,-4.7934035E4,-3.86937E4,5.4562476E3,6.637125E4,2.168418E4,9.8441664E4,1.6642822E4,7.1460086E4,1.5195266E5,4.097339E4,-1.0390229E4,5.7963348E4,1.1844527E4,6.8321724E3,6.0609645E4,1.266404E5,7.344992E4,1.1587302E5,-1.9562598E4,-2.8835654E4,6.062517E4,4.0065803E3,-7.553571E3,7.2801846E3,-9.8231256E2,-5.5531343E3,2.161714E4,-2.4684778E3,6.138591E3,-1.083841E4,1.151047E4,-2.0228537E4,-1.3063188E4,5.356586E3,-1.7401873E4,-1.0565566E2,4.0263902E4,-9.832083E3,-1.7257152E4,1.2775423E4,-7.64481E3,-2.379236E4,-3.6767008E4,-1.5029258E4,2.2210596E3,-7.3342305E3,-2.2684768E4,-2.946673E2,2.3254867E4,4.889311E4,2.0271508E4,-7.690312E3,2.1412727E4,3.414098E3,3.655773E4,5.5918043E4,2.119344E4,9.517225E3,2.727377E4,1.4674688E4,-4.3911357E3,4.9113336E4,1.6371986E4,-1.0506826E3,2.0695592E4,3.1772424E4,6.2809637E4,2.4443268E4,-7.511624E3,3.98764E4,-1.3565872E4,-2.7389371E4,1.252145E4,-2.4971043E4,1.47745E4,8.312326E3,4.2393516E4],"categories":[],"categories_nodes":[],"categories_segments":[],"categories_sizes":[],"default_left":[0,0,0,0,0,0,0,0,0,0,0,0,0,0,0,0,0,0,0,0,0,0,0,0,0,0,0,0,0,0,0,0,0,0,0,0,0,0,0,0,0,0,0,0,0,0,0,0,0,0,0,0,0,0,0,0,0,0,0,0,0,0,0,0,0,0,0,0,0,0,0,0,0,0,0,0,0,0,0,0,0,0,0,0,0,0,0,0,0,0,0,0,0,0,0,0,0,0,0,0,0,0,0,0,0,0,0,0,0,0,0,0,0,0,0,0,0,0,0],"id":6,"left_children":[1,3,5,7,9,11,13,15,17,19,21,23,25,27,29,31,33,35,37,39,41,43,45,47,49,51,53,55,57,59,61,63,65,67,69,71,73,75,77,79,81,83,85,87,89,-1,-1,91,93,95,97,99,101,103,105,-1,-1,107,109,111,113,115,117,-1,-1,-1,-1,-1,-1,-1,-1,-1,-1,-1,-1,-1,-1,-1,-1,-1,-1,-1,-1,-1,-1,-1,-1,-1,-1,-1,-1,-1,-1,-1,-1,-1,-1,-1,-1,-1,-1,-1,-1,-1,-1,-1,-1,-1,-1,-1,-1,-1,-1,-1,-1,-1,-1,-1,-1],"loss_changes":[2.273503E12,1.6935699E12,8.450361E11,1.5356988E12,2.153817E11,7.8912776E11,2.1120313E11,1.5155325E12,5.0501412E11,8.2221466E10,1.2648165E11,1.8850356E11,8.7591734E11,9.889933E10,1.6756852E11,1.0517507E12,5.48976E11,8.933907E10,1.8928293E11,1.743428E11,5.3502476E10,5.902583E10,1.9574137E10,2.3773597E11,1.3815893E11,5.402127E11,3.6999712E11,2.156639E10,9.558819E10,1.1048E11,1.1664147E11,1.9601886E11,7.304893E11,3.8044736E11,2.834733E11,6.079531E10,6.494303E10,6.600347E10,2.2232857E11,8.346049E10,8.843676E10,7.3934766E9,3.9625605E9,2.5503564E10,3.3944936E10,0E0,0E0,1.1648847E11,1.9157395E11,1.4395528E11,1.1284611E11,1.1397733E11,2.7121949E11,1.6995307E11,2.361353E11,0E0,0E0,8.073137E10,7.794075E10,9.9386655E10,3.8990033E10,1.5277431E11,6.24844E10,0E0,0E0,0E0,0E0,0E0,0E0,0E0,0E0,0E0,0E0,0E0,0E0,0E0,0E0,0E0,0E0,0E0,0E0,0E0,0E0,0E0,0E0,0E0,0E0,0E0,0E0,0E0,0E0,0E0,0E0,0E0,0E0,0E0,0E0,0E0,0E0,0E0,0E0,0E0,0E0,0E0,0E0,0E0,0E0,0E0,0E0,0E0,0E0,0E0,0E0,0E0,0E0,0E0,0E0,0E0,0E0],"parents":[2147483647,0,0,1,1,2,2,3,3,4,4,5,5,6,6,7,7,8,8,9,9,10,10,11,11,12,12,13,13,14,14,15,15,16,16,17,17,18,18,19,19,20,20,21,21,22,22,23,23,24,24,25,25,26,26,27,27,28,28,29,29,30,30,31,31,32,32,33,33,34,34,35,35,36,36,37,37,38,38,39,39,40,40,41,41,42,42,43,43,44,44,47,47,48,48,49,49,50,50,51,51,52,52,53,53,54,54,57,57,58,58,59,59,60,60,61,61,62,62],"right_children":[2,4,6,8,10,12,14,16,18,20,22,24,26,28,30,32,34,36,38,40,42,44,46,48,50,52,54,56,58,60,62,64,66,68,70,72,74,76,78,80,82,84,86,88,90,-1,-1,92,94,96,98,100,102,104,106,-1,-1,108,110,112,114,116,118,-1,-1,-1,-1,-1,-1,-1,-1,-1,-1,-1,-1,-1,-1,-1,-1,-1,-1,-1,-1,-1,-1,-1,-1,-1,-1,-1,-1,-1,-1,-1,-1,-1,-1,-1,-1,-1,-1,-1,-1,-1,-1,-1,-1,-1,-1,-1,-1,-1,-1,-1,-1,-1,-1,-1,-1],"split_conditions":[4.730392E-1,1E0,1.2E2,1E0,6.5217394E-1,1.31E3,4.048913E-1,1E0,1.1E2,9.5E3,1E0,6.2990195E-1,5.652174E-1,7.880435E-2,2.97E3,1.127451E-1,1.1E2,1.3011E4,2.6086956E-1,8.97E3,9.62E3,1.04E2,3.7990198E-1,3.464674E-1,1E0,2.2581522E-1,3.5310346E-1,1.6E3,1E0,1E0,1.28E2,1.06E3,4.6025E4,1E0,2.1323529E-1,5E-1,8.6E3,1.19E3,1.47E2,1.4E3,9.03E3,3.3333334E-1,1E0,3.529412E-1,4.6078432E-1,6.637125E4,2.168418E4,1.02E3,1.05E3,6.666667E-1,1E0,8.308824E-1,1.1004E4,1.1053E4,8.5294116E-1,6.8321724E3,6.0609645E4,4.3310344E-1,6.5625E-1,1E0,5E-1,4.88E3,6.4215684E-1,4.0065803E3,-7.553571E3,7.2801846E3,-9.8231256E2,-5.5531343E3,2.161714E4,-2.4684778E3,6.138591E3,-1.083841E4,1.151047E4,-2.0228537E4,-1.3063188E4,5.356586E3,-1.7401873E4,-1.0565566E2,4.0263902E4,-9.832083E3,-1.7257152E4,1.2775423E4,-7.64481E3,-2.379236E4,-3.6767008E4,-1.5029258E4,2.2210596E3,-7.3342305E3,-2.2684768E4,-2.946673E2,2.3254867E4,4.889311E4,2.0271508E4,-7.690312E3,2.1412727E4,3.414098E3,3.655773E4,5.5918043E4,2.119344E4,9.517225E3,2.727377E4,1.4674688E4,-4.3911357E3,4.9113336E4,1.6371986E4,-1.0506826E3,2.0695592E4,3.1772424E4,6.2809637E4,2.4443268E4,-7.511624E3,3.98764E4,-1.3565872E4,-2.7389371E4,1.252145E4,-2.4971043E4,1.47745E4,8.312326E3,4.2393516E4],"split_indices":[2,22,50,23,11,0,12,20,50,0,32,2,11,12,0,2,50,49,11,0,0,50,2,12,3,12,13,0,36,23,50,0,49,44,2,1,0,0,50,0,0,1,27,2,2,0,0,0,0,1,26,2,49,49,2,0,0,13,7,41,1,0,2,0,0,0,0,0,0,0,0,0,0,0,0,0,0,0,0,0,0,0,0,0,0,0,0,0,0,0,0,0,0,0,0,0,0,0,0,0,0,0,0,0,0,0,0,0,0,0,0,0,0,0,0,0,0,0,0],"split_type":[0,0,0,0,0,0,0,0,0,0,0,0,0,0,0,0,0,0,0,0,0,0,0,0,0,0,0,0,0,0,0,0,0,0,0,0,0,0,0,0,0,0,0,0,0,0,0,0,0,0,0,0,0,0,0,0,0,0,0,0,0,0,0,0,0,0,0,0,0,0,0,0,0,0,0,0,0,0,0,0,0,0,0,0,0,0,0,0,0,0,0,0,0,0,0,0,0,0,0,0,0,0,0,0,0,0,0,0,0,0,0,0,0,0,0,0,0,0,0],"sum_hessian":[1.5926E4,1.3336E4,2.59E3,1.2302E4,1.034E3,2.326E3,2.64E2,1.1342E4,9.6E2,9.05E2,1.29E2,2.35E2,2.091E3,1.66E2,9.8E1,6.167E3,5.175E3,6.38E2,3.22E2,8.37E2,6.8E1,1.23E2,6E0,1.44E2,9.1E1,1.325E3,7.66E2,1.2E1,1.54E2,4E1,5.8E1,9.43E2,5.224E3,3.799E3,1.376E3,6.4E1,5.74E2,8.9E1,2.33E2,7.51E2,8.6E1,3.9E1,2.9E1,5.1E1,7.2E1,1E0,5E0,6.3E1,8.1E1,4.7E1,4.4E1,2.52E2,1.073E3,4.98E2,2.68E2,1E0,1.1E1,5.9E1,9.5E1,3.3E1,7E0,3.4E1,2.4E1,1.58E2,7.85E2,3.951E3,1.273E3,3.753E3,4.6E1,6.98E2,6.78E2,5.1E1,1.3E1,4.04E2,1.7E2,1.3E1,7.6E1,2.21E2,1.2E1,1.86E2,5.65E2,2.7E1,5.9E1,1.6E1,2.3E1,2.8E1,1E0,3.8E1,1.3E1,6.7E1,5E0,1.9E1,4.4E1,4.6E1,3.5E1,2.2E1,2.5E1,3E1,1.4E1,2.14E2,3.8E1,7.1E1,1.002E3,1.4E1,4.84E2,2.12E2,5.6E1,4.9E1,1E1,8.8E1,7E0,3E1,3E0,3E0,4E0,2E1,1.4E1,1.8E1,6E0],"tree_param":{"num_deleted":"0","num_feature":"51","num_nodes":"119","size_leaf_vector":"1"}},{"base_weights":[1.5119774E2,-4.8156177E3,1.7652797E4,2.1965483E3,-1.6135129E4,1.0681208E4,4.067666E4,-9.577608E3,1.037444E4,-1.26142295E4,-3.8421918E4,8.803767E3,1.189733E5,4.7801527E4,-8.697916E3,-1.2481222E4,2.6715053E4,4.0394586E4,5.9297407E3,-8.806234E3,-3.54797E4,-4.15089E4,1.076768E4,-8.678778E3,1.6304976E4,1.3831612E5,-3.303159E4,5.3986285E4,-1.2820996E4,7.145706E4,-3.1074338E4,1.2141447E4,-1.5087548E4,-1.1704423E4,4.805186E4,1.2533692E4,9.932709E4,-2.3264816E4,9.382691E3,-1.3835904E4,8.510251E3,-6.530318E4,-3.083066E4,-4.2430656E4,7.832524E4,-1.5366106E4,4.549176E4,-4.3406465E3,-6.301568E4,7.004154E4,1.3116746E4,1.5997272E5,1.0273724E4,-8.213786E4,3.1874963E4,5.16246E4,2.1619205E5,-3.8873492E4,6.609067E4,9.3359234E4,-3.170314E4,-4.9113754E4,7.491651E3,1.4406759E4,1.6740446E3,-1.4873634E4,-3.960652E3,2.9850537E4,-4.689062E3,-7.5922827E3,1.7474145E4,6.9235864E3,-1.603686E4,1.2652681E4,3.630858E4,-1.190589E4,9.2785785E2,2.0464896E4,2.0404435E3,-4.5166953E3,1.8248283E4,-1.4455769E4,4.9477715E3,-2.6205227E4,-1.5976577E4,-9.555634E3,1.7981838E4,-7.8849136E3,-1.4588827E4,2.8338437E2,3.887924E4,1.5349755E4,-1.1006926E4,5.4895913E3,3.878843E4,2.5028818E3,-6.2071924E3,-3.5740754E4,-1.3845698E4,1.0462071E4,3.0967328E4,3.007914E3,1.8501734E4,4.2998394E3,5.195357E4,1.4454238E4,-3.2575305E4,-2.9928494E4,-1.7464078E3,3.4094367E4,1.4058903E4,7.022637E4,1.0953825E4,3.563805E4,-1.5360764E4,5.1048637E4,2.5642188E3,3.3286508E4,-1.476015E4,-1.6919352E4,6.295969E3,5.8008355E4,-4.5337075E3],"categories":[],"categories_nodes":[],"categories_segments":[],"categories_sizes":[],"default_left":[0,0,0,0,0,0,0,0,0,0,0,0,0,0,0,0,0,0,0,0,0,0,0,0,0,0,0,0,0,0,0,0,0,0,0,0,0,0,0,0,0,0,0,0,0,0,0,0,0,0,0,0,0,0,0,0,0,0,0,0,0,0,0,0,0,0,0,0,0,0,0,0,0,0,0,0,0,0,0,0,0,0,0,0,0,0,0,0,0,0,0,0,0,0,0,0,0,0,0,0,0,0,0,0,0,0,0,0,0,0,0,0,0,0,0,0,0,0,0,0,0,0,0],"id":7,"left_children":[1,3,5,7,9,11,13,15,17,19,21,23,25,27,29,31,33,35,37,39,41,43,45,47,49,51,53,55,57,59,61,63,65,67,69,71,73,75,77,79,81,83,85,87,89,91,93,95,97,99,101,103,105,107,-1,109,111,113,115,117,-1,119,121,-1,-1,-1,-1,-1,-1,-1,-1,-1,-1,-1,-1,-1,-1,-1,-1,-1,-1,-1,-1,-1,-1,-1,-1,-1,-1,-1,-1,-1,-1,-1,-1,-1,-1,-1,-1,-1,-1,-1,-1,-1,-1,-1,-1,-1,-1,-1,-1,-1,-1,-1,-1,-1,-1,-1,-1,-1,-1,-1,-1],"loss_changes":[1.3845747E12,9.848323E11,5.647314E11,7.378563E11,3.7193187E11,5.487085E11,2.8817778E11,3.313316E11,6.031333E11,3.5668112E11,9.86923E10,3.4884338E11,1.3981817E11,2.6877113E11,1.8875297E11,1.8686738E11,1.9156394E11,9.5598995E11,3.9739936E11,3.0634797E11,7.909717E10,7.059223E10,3.6090425E10,1.8806727E11,3.1791612E11,1.1204795E11,4.9764696E10,2.3745711E11,1.4031084E11,9.909727E10,5.7416E10,6.541602E10,1.7043646E11,3.822724E10,1.136622E11,2.7748958E11,2.2682665E11,1.8061373E11,5.3469836E11,2.4908297E11,3.592276E11,1.6067035E10,4.9009558E10,5.927954E10,1.9714961E10,3.450745E10,3.6374794E10,1.5383865E11,5.0337694E10,1.17765505E11,2.6317813E11,6.4833257E10,3.6770607E10,6.14418E9,0E0,1.839804E11,2.0392346E10,1.0522064E11,1.0035193E11,5.8136494E10,0E0,2.97781E10,1.1635986E11,0E0,0E0,0E0,0E0,0E0,0E0,0E0,0E0,0E0,0E0,0E0,0E0,0E0,0E0,0E0,0E0,0E0,0E0,0E0,0E0,0E0,0E0,0E0,0E0,0E0,0E0,0E0,0E0,0E0,0E0,0E0,0E0,0E0,0E0,0E0,0E0,0E0,0E0,0E0,0E0,0E0,0E0,0E0,0E0,0E0,0E0,0E0,0E0,0E0,0E0,0E0,0E0,0E0,0E0,0E0,0E0,0E0,0E0,0E0,0E0],"parents":[2147483647,0,0,1,1,2,2,3,3,4,4,5,5,6,6,7,7,8,8,9,9,10,10,11,11,12,12,13,13,14,14,15,15,16,16,17,17,18,18,19,19,20,20,21,21,22,22,23,23,24,24,25,25,26,26,27,27,28,28,29,29,30,30,31,31,32,32,33,33,34,34,35,35,36,36,37,37,38,38,39,39,40,40,41,41,42,42,43,43,44,44,45,45,46,46,47,47,48,48,49,49,50,50,51,51,52,52,53,53,55,55,56,56,57,57,58,58,59,59,61,61,62,62],"right_children":[2,4,6,8,10,12,14,16,18,20,22,24,26,28,30,32,34,36,38,40,42,44,46,48,50,52,54,56,58,60,62,64,66,68,70,72,74,76,78,80,82,84,86,88,90,92,94,96,98,100,102,104,106,108,-1,110,112,114,116,118,-1,120,122,-1,-1,-1,-1,-1,-1,-1,-1,-1,-1,-1,-1,-1,-1,-1,-1,-1,-1,-1,-1,-1,-1,-1,-1,-1,-1,-1,-1,-1,-1,-1,-1,-1,-1,-1,-1,-1,-1,-1,-1,-1,-1,-1,-1,-1,-1,-1,-1,-1,-1,-1,-1,-1,-1,-1,-1,-1,-1,-1,-1],"split_conditions":[5E-1,3.6413044E-1,6.4215684E-1,1.6176471E-1,1E0,1.5E2,1E0,1.5E2,1.07E3,1E0,1.25E2,2.6086956E-1,2.8125E-1,1E0,2.1E3,2.3448275E-2,2.413793E-1,1.04E3,8.7E1,1.11E2,2.1793103E-1,8.308824E-1,3.0392158E-1,6.847826E-1,1.1057E4,1E0,3.9950982E-1,1E0,8.333333E-1,1.17E2,8.42E3,1.18E3,3.9215688E-2,7.880435E-2,6.6176474E-2,1.02E3,2.0833333E-1,6.2063E4,1.3E3,1E0,8.0882356E-2,1.18620686E-1,9.019608E-1,2.3016E4,5.3E3,1E0,5.503448E-1,4.1E3,2.15E3,4.4607842E-1,6.5625E-1,2.5245097E-1,6.666667E-1,3.9460784E-1,3.1874963E4,1.4402173E-1,4.728261E-1,1.082E3,2.6222825E-1,4.7826087E-1,-3.170314E4,8.827586E-1,3.3011E4,1.4406759E4,1.6740446E3,-1.4873634E4,-3.960652E3,2.9850537E4,-4.689062E3,-7.5922827E3,1.7474145E4,6.9235864E3,-1.603686E4,1.2652681E4,3.630858E4,-1.190589E4,9.2785785E2,2.0464896E4,2.0404435E3,-4.5166953E3,1.8248283E4,-1.4455769E4,4.9477715E3,-2.6205227E4,-1.5976577E4,-9.555634E3,1.7981838E4,-7.8849136E3,-1.4588827E4,2.8338437E2,3.887924E4,1.5349755E4,-1.1006926E4,5.4895913E3,3.878843E4,2.5028818E3,-6.2071924E3,-3.5740754E4,-1.3845698E4,1.0462071E4,3.0967328E4,3.007914E3,1.8501734E4,4.2998394E3,5.195357E4,1.4454238E4,-3.2575305E4,-2.9928494E4,-1.7464078E3,3.4094367E4,1.4058903E4,7.022637E4,1.0953825E4,3.563805E4,-1.5360764E4,5.1048637E4,2.5642188E3,3.3286508E4,-1.476015E4,-1.6919352E4,6.295969E3,5.8008355E4,-4.5337075E3],"split_indices":[1,12,2,2,23,50,23,50,0,22,50,11,7,41,0,13,13,0,50,50,13,2,2,12,49,17,2,30,1,50,0,0,2,12,2,0,2,49,0,44,2,13,2,49,0,36,13,0,0,2,7,2,1,2,0,12,12,0,12,11,0,13,49,0,0,0,0,0,0,0,0,0,0,0,0,0,0,0,0,0,0,0,0,0,0,0,0,0,0,0,0,0,0,0,0,0,0,0,0,0,0,0,0,0,0,0,0,0,0,0,0,0,0,0,0,0,0,0,0,0,0,0,0],"split_type":[0,0,0,0,0,0,0,0,0,0,0,0,0,0,0,0,0,0,0,0,0,0,0,0,0,0,0,0,0,0,0,0,0,0,0,0,0,0,0,0,0,0,0,0,0,0,0,0,0,0,0,0,0,0,0,0,0,0,0,0,0,0,0,0,0,0,0,0,0,0,0,0,0,0,0,0,0,0,0,0,0,0,0,0,0,0,0,0,0,0,0,0,0,0,0,0,0,0,0,0,0,0,0,0,0,0,0,0,0,0,0,0,0,0,0,0,0,0,0,0,0,0,0],"sum_hessian":[1.5926E4,1.2406E4,3.52E3,7.661E3,4.745E3,2.703E3,8.17E2,3.14E3,4.521E3,4.099E3,6.46E2,2.658E3,4.5E1,7.14E2,1.03E2,2.908E3,2.32E2,5.82E2,3.939E3,3.515E3,5.84E2,6.08E2,3.8E1,7.98E2,1.86E3,4E1,5E0,6.48E2,6.6E1,2.2E1,8.1E1,2.78E2,2.63E3,8.3E1,1.49E2,3.96E2,1.86E2,4.16E2,3.523E3,2.724E3,7.91E2,7.7E1,5.07E2,6.04E2,4E0,2.2E1,1.6E1,7.4E2,5.8E1,1.03E2,1.757E3,3.4E1,6E0,4E0,1E0,6.4E2,8E0,5E1,1.6E1,2E1,2E0,5.5E1,2.6E1,4.2E1,2.36E2,1.35E2,2.495E3,2E0,8.1E1,1.8E1,1.31E2,3.42E2,5.4E1,5.2E1,1.34E2,2.56E2,1.6E2,1.47E2,3.376E3,2.681E3,4.3E1,9.7E1,6.94E2,2.5E1,5.2E1,5.02E2,5E0,1.69E2,4.35E2,2E0,2E0,5E0,1.7E1,1.3E1,3E0,4.17E2,3.23E2,1.2E1,4.6E1,5.1E1,5.2E1,1.653E3,1.04E2,3E0,3.1E1,5E0,1E0,3E0,1E0,4.4E1,5.96E2,7E0,1E0,3E0,4.7E1,5E0,1.1E1,1.8E1,2E0,5E1,5E0,2E0,2.4E1],"tree_param":{"num_deleted":"0","num_feature":"51","num_nodes":"123","size_leaf_vector":"1"}},{"base_weights":[1.3097505E2,-4.1821064E3,1.3647801E4,1.6629596E4,-7.1965264E3,6.117464E4,1.0822225E4,2.0041676E3,4.07987E4,-3.057713E4,-4.605856E3,4.772611E4,1.497674E5,3.6771152E3,2.8058195E4,1.4775014E4,-4.437737E4,9.29012E3,6.687631E4,-3.7889336E4,-1.6113768E4,-5.940532E3,3.5774473E4,1.4535408E5,3.723175E4,1.5406478E5,5.060789E3,-2.1878281E3,2.3263584E4,8.061648E4,2.4226783E4,8.919826E3,6.6429836E4,-7.765689E4,-2.4324293E4,7.858946E4,3.5482395E3,1.368995E5,5.5002074E4,-2.9459494E4,-5.3955598E4,-2.2743723E4,5.646888E4,-3.2236353E3,-2.5464E4,5.8237082E4,3.3016074E4,2.1741234E4,5.0343434E4,2.9294242E4,1.0787997E5,1.5698669E5,1.1714241E4,-2.1886277E4,7.143101E3,2.0966502E4,1.8861688E5,1.7853268E4,9.4143055E4,2.0788713E4,7.7456914E4,1.4068964E3,1.4941259E4,3.6640473E4,3.9725676E3,-2.4497832E4,-7.789739E3,-8.732191E3,4.008522E4,8.439525E3,2.6833697E4,-3.2365508E3,6.4707183E3,3.2324945E4,5.489968E4,6.543271E3,2.6783113E4,5.238873E3,-9.226598E3,-3.042069E4,-1.2355694E4,-6.562226E3,-4.5806355E4,5.9024487E3,4.204067E4,-1.1703672E3,2.2627014E4,-7.89394E3,3.4101324E4,4.553049E3,1.6590486E4,7.048739E3,3.1077707E4,3.413384E4,2.0232047E3,1.9435275E4,4.859127E4,2.8070938E3,-8.506151E3,1.1484196E4,-1.4668713E3,1.0095122E4,4.8170703E2,6.2041297E4,9.195731E3,2.1320266E4,-1.3654054E4,3.666055E4,1.6908668E4,8.322635E2,8.860263E3,1.827925E4,4.619828E4],"categories":[],"categories_nodes":[],"categories_segments":[],"categories_sizes":[],"default_left":[0,0,0,0,0,0,0,0,0,0,0,0,0,0,0,0,0,0,0,0,0,0,0,0,0,0,0,0,0,0,0,0,0,0,0,0,0,0,0,0,0,0,0,0,0,0,0,0,0,0,0,0,0,0,0,0,0,0,0,0,0,0,0,0,0,0,0,0,0,0,0,0,0,0,0,0,0,0,0,0,0,0,0,0,0,0,0,0,0,0,0,0,0,0,0,0,0,0,0,0,0,0,0,0,0,0,0,0,0,0,0,0,0],"id":8,"left_children":[1,3,5,7,9,11,13,15,17,19,21,23,25,27,29,31,33,35,37,39,41,43,45,47,49,51,-1,53,55,57,59,61,63,65,67,69,71,73,75,77,79,81,83,85,87,-1,89,-1,-1,91,93,95,-1,97,99,101,103,105,107,109,111,-1,-1,-1,-1,-1,-1,-1,-1,-1,-1,-1,-1,-1,-1,-1,-1,-1,-1,-1,-1,-1,-1,-1,-1,-1,-1,-1,-1,-1,-1,-1,-1,-1,-1,-1,-1,-1,-1,-1,-1,-1,-1,-1,-1,-1,-1,-1,-1,-1,-1,-1,-1],"loss_changes":[9.28588E11,7.576473E11,5.1676E11,5.40041E11,6.387667E11,2.502038E11,4.479271E11,5.651476E11,4.726598E11,1.1064797E11,5.1205023E11,1.8822683E11,1.3392085E10,2.9562048E11,2.1270987E11,2.2563904E11,1.3558651E11,1.0397318E11,2.5438401E11,9.294479E10,1.721173E11,4.875976E11,1.2637507E11,1.7300324E10,9.329235E10,2.9439427E9,0E0,3.642737E11,2.212846E11,5.9445182E10,1.8048372E11,1.1616039E11,2.2355843E11,1.3810631E10,1.0209603E11,8.4393083E9,6.3014138E10,4.0752185E10,3.0634954E11,2.8506685E10,1.4063187E11,3.3499464E10,8.9595945E10,4.3045372E11,1.3566699E11,0E0,1.1842788E11,0E0,0E0,6.4772956E10,9.375728E9,1.4552269E9,0E0,1.2898242E11,5.041155E11,1.4385039E11,1.6644669E10,5.044278E10,5.56574E10,1.473809E11,6.650875E10,0E0,0E0,0E0,0E0,0E0,0E0,0E0,0E0,0E0,0E0,0E0,0E0,0E0,0E0,0E0,0E0,0E0,0E0,0E0,0E0,0E0,0E0,0E0,0E0,0E0,0E0,0E0,0E0,0E0,0E0,0E0,0E0,0E0,0E0,0E0,0E0,0E0,0E0,0E0,0E0,0E0,0E0,0E0,0E0,0E0,0E0,0E0,0E0,0E0,0E0,0E0,0E0],"parents":[2147483647,0,0,1,1,2,2,3,3,4,4,5,5,6,6,7,7,8,8,9,9,10,10,11,11,12,12,13,13,14,14,15,15,16,16,17,17,18,18,19,19,20,20,21,21,22,22,23,23,24,24,25,25,27,27,28,28,29,29,30,30,31,31,32,32,33,33,34,34,35,35,36,36,37,37,38,38,39,39,40,40,41,41,42,42,43,43,44,44,46,46,49,49,50,50,51,51,53,53,54,54,55,55,56,56,57,57,58,58,59,59,60,60],"right_children":[2,4,6,8,10,12,14,16,18,20,22,24,26,28,30,32,34,36,38,40,42,44,46,48,50,52,-1,54,56,58,60,62,64,66,68,70,72,74,76,78,80,82,84,86,88,-1,90,-1,-1,92,94,96,-1,98,100,102,104,106,108,110,112,-1,-1,-1,-1,-1,-1,-1,-1,-1,-1,-1,-1,-1,-1,-1,-1,-1,-1,-1,-1,-1,-1,-1,-1,-1,-1,-1,-1,-1,-1,-1,-1,-1,-1,-1,-1,-1,-1,-1,-1,-1,-1,-1,-1,-1,-1,-1,-1,-1,-1,-1,-1],"split_conditions":[1.11E2,1.07E3,1.19E3,1.04E3,8.1E1,5E-1,1.23E2,1.02E3,1.5686275E-1,3.9130434E-1,1E0,1.0733695E-1,7.336956E-1,6.5217394E-1,8.7771736E-2,3.970588E-1,1.03E3,7.172414E-2,1.18620686E-1,2.3774509E-1,6.3076E4,6.222826E-1,1.1053E4,2.009804E-1,6.5625E-1,1E0,5.060789E3,2.9E3,9.632353E-1,1.5196079E-1,6.4215684E-1,1E0,3.396739E-1,5.392157E-1,1E0,4.901961E-2,1.0784314E-1,1.9429348E-1,5.7931036E-1,5.8E1,1E0,1E0,6.086956E-1,9.387255E-1,1E0,5.8237082E4,8.34E3,2.1741234E4,5.0343434E4,1E0,1E0,2.1603261E-1,1.1714241E4,4.8275862E-2,3.52E3,3.3793104E-1,1E0,3.478261E-1,1E0,2.4104E4,2.5112E4,1.4068964E3,1.4941259E4,3.6640473E4,3.9725676E3,-2.4497832E4,-7.789739E3,-8.732191E3,4.008522E4,8.439525E3,2.6833697E4,-3.2365508E3,6.4707183E3,3.2324945E4,5.489968E4,6.543271E3,2.6783113E4,5.238873E3,-9.226598E3,-3.042069E4,-1.2355694E4,-6.562226E3,-4.5806355E4,5.9024487E3,4.204067E4,-1.1703672E3,2.2627014E4,-7.89394E3,3.4101324E4,4.553049E3,1.6590486E4,7.048739E3,3.1077707E4,3.413384E4,2.0232047E3,1.9435275E4,4.859127E4,2.8070938E3,-8.506151E3,1.1484196E4,-1.4668713E3,1.0095122E4,4.8170703E2,6.2041297E4,9.195731E3,2.1320266E4,-1.3654054E4,3.666055E4,1.6908668E4,8.322635E2,8.860263E3,1.827925E4,4.619828E4],"split_indices":[50,0,0,0,50,1,50,0,2,11,48,12,12,11,12,2,0,13,13,2,49,12,49,2,7,38,0,0,2,2,2,21,12,2,1,2,2,12,13,50,25,2,11,2,33,0,0,0,0,21,18,12,0,13,0,13,33,11,36,49,49,0,0,0,0,0,0,0,0,0,0,0,0,0,0,0,0,0,0,0,0,0,0,0,0,0,0,0,0,0,0,0,0,0,0,0,0,0,0,0,0,0,0,0,0,0,0,0,0,0,0,0,0],"split_type":[0,0,0,0,0,0,0,0,0,0,0,0,0,0,0,0,0,0,0,0,0,0,0,0,0,0,0,0,0,0,0,0,0,0,0,0,0,0,0,0,0,0,0,0,0,0,0,0,0,0,0,0,0,0,0,0,0,0,0,0,0,0,0,0,0,0,0,0,0,0,0,0,0,0,0,0,0,0,0,0,0,0,0,0,0,0,0,0,0,0,0,0,0,0,0,0,0,0,0,0,0,0,0,0,0,0,0,0,0,0,0,0,0],"sum_hessian":[1.5926E4,1.2074E4,3.852E3,1.527E3,1.0547E4,2.15E2,3.637E3,9.52E2,5.75E2,1.051E3,9.496E3,1.88E2,2.7E1,2.572E3,1.065E3,7.47E2,2.05E2,2.61E2,3.14E2,6.97E2,3.54E2,9.193E3,3.03E2,1.7E1,1.71E2,2.6E1,1E0,1.98E3,5.92E2,7.1E1,9.94E2,6.72E2,7.5E1,7.6E1,1.29E2,1.9E1,2.42E2,4.4E1,2.7E2,4.59E2,2.38E2,3.25E2,2.9E1,8.071E3,1.122E3,4E0,2.99E2,5E0,1.2E1,1.55E2,1.6E1,2.5E1,1E0,6.36E2,1.344E3,5.85E2,7E0,1.3E1,5.8E1,9.35E2,5.9E1,6.1E2,6.2E1,3.6E1,3.9E1,7E1,6E0,1.26E2,3E0,4E0,1.5E1,1.35E2,1.07E2,2.9E1,1.5E1,1.38E2,1.32E2,1.2E1,4.47E2,4.9E1,1.89E2,3.24E2,1E0,2.1E1,8E0,8.003E3,6.8E1,1.116E3,6E0,1.67E2,1.32E2,1.45E2,1E1,1.5E1,1E0,2E0,2.3E1,1.09E2,5.27E2,3.74E2,9.7E2,3.53E2,2.32E2,6E0,1E0,7E0,6E0,3.2E1,2.6E1,3.06E2,6.29E2,5E1,9E0],"tree_param":{"num_deleted":"0","num_feature":"51","num_nodes":"113","size_leaf_vector":"1"}},{"base_weights":[1.3837675E2,-7.3689355E3,6.559583E3,-1.1182992E4,1.0895651E4,-4.38039E3,1.175499E4,-8.88673E3,-3.6547254E4,3.2218416E3,2.8975393E4,5.0908115E3,-1.3149413E4,6.6456963E3,2.8365605E4,-1.1377161E4,3.2572387E4,-1.9484316E4,-5.326477E4,6.061424E3,-2.3461467E4,6.664142E4,1.183529E4,4.0650484E4,2.5078452E3,3.1386066E4,-1.6831217E4,3.9658234E4,4.9369854E3,2.4931365E4,8.3388125E4,-1.011207E4,-5.4980105E4,6.0431586E4,5.0319727E3,-2.2956648E4,3.295036E4,-7.784676E4,-3.9299984E4,2.5817547E4,2.774244E3,-2.8056201E4,1.8966393E4,3.0973691E4,1.0178417E5,1.5580763E4,-8.373415E4,-2.600306E4,5.652875E4,5.4366367E3,-2.4157404E4,8.667845E3,7.4203016E4,1.7436123E4,-2.0377838E4,1.8838832E4,7.6314914E4,4.4307913E2,2.0475973E4,4.6769258E4,1.8208885E4,9.025422E4,-1.1296216E4,-1.870026E3,-7.430457E3,-1.3283003E4,-2.4281797E4,1.6287446E4,4.357858E4,-2.2543308E3,2.9560508E4,-4.0125903E3,-9.450872E3,2.4360386E3,3.1623307E4,-1.6530064E4,-2.7520074E4,-1.2248633E4,3.1483928E4,1.2719785E4,-1.2037782E3,-3.925407E3,2.663411E3,-6.3166265E3,-1.2879196E4,-6.197826E2,1.8515912E4,2.1236795E4,1.5342429E2,4.4450086E4,1.822508E4,8.475198E3,-5.1349336E3,-3.5174816E4,-8.0307114E3,-1.327055E4,2.3970758E4,1.32227295E4,3.318409E4,2.609272E3,-7.016217E3,-1.4958499E4,2.2458865E3,-1.2063495E4,7.983254E3,-8.1329926E2,3.1691629E4,3.879739E3,4.5131617E4,3.26987E3,-6.8933037E3,1.7836312E3,2.2691594E4,1.1641813E4,2.9188182E4,1.0659043E4,-5.418268E2,2.5699508E4,1.9994069E3,1.7320568E4,4.9531626E3,5.1205146E3,4.2112125E4,2.373003E4,5.2553027E4],"categories":[],"categories_nodes":[],"categories_segments":[],"categories_sizes":[],"default_left":[0,0,0,0,0,0,0,0,0,0,0,0,0,0,0,0,0,0,0,0,0,0,0,0,0,0,0,0,0,0,0,0,0,0,0,0,0,0,0,0,0,0,0,0,0,0,0,0,0,0,0,0,0,0,0,0,0,0,0,0,0,0,0,0,0,0,0,0,0,0,0,0,0,0,0,0,0,0,0,0,0,0,0,0,0,0,0,0,0,0,0,0,0,0,0,0,0,0,0,0,0,0,0,0,0,0,0,0,0,0,0,0,0,0,0,0,0,0,0,0,0,0,0,0,0],"id":9,"left_children":[1,3,5,7,9,11,13,15,17,19,21,23,25,27,29,31,33,35,37,39,41,43,45,47,49,51,53,55,57,59,61,63,65,67,69,71,73,75,77,79,81,83,85,87,89,91,93,95,97,99,101,103,105,107,109,111,113,115,117,119,121,123,-1,-1,-1,-1,-1,-1,-1,-1,-1,-1,-1,-1,-1,-1,-1,-1,-1,-1,-1,-1,-1,-1,-1,-1,-1,-1,-1,-1,-1,-1,-1,-1,-1,-1,-1,-1,-1,-1,-1,-1,-1,-1,-1,-1,-1,-1,-1,-1,-1,-1,-1,-1,-1,-1,-1,-1,-1,-1,-1,-1,-1,-1,-1],"loss_changes":[7.678253E11,5.1165102E11,4.8800236E11,3.5350145E11,1.7596832E11,2.2970902E11,4.938312E11,5.756855E11,1.427281E11,6.7728548E10,2.4324794E11,1.2205782E11,2.3599047E11,2.50993E11,2.5660791E11,2.8942887E11,2.4214811E11,4.645616E10,8.4134265E10,5.233651E10,1.7297371E10,1.4475588E11,9.473029E10,9.6720765E10,9.7049666E10,1.0635657E11,1.6163003E11,1.656966E11,2.9572415E11,1.8852656E11,6.988536E10,2.9032854E11,3.7538464E10,7.388961E10,1.8844084E11,1.8903425E10,2.7931486E10,2.369028E10,4.0450556E10,5.7053217E10,6.719831E10,7.218434E9,8.220328E9,7.273625E10,1.0329155E11,1.0487964E11,1.5953347E10,3.829037E10,4.4291457E10,1.0538193E11,1.0041872E11,6.509433E10,9.216464E10,7.292926E10,9.807387E10,1.0281057E11,5.8389463E10,2.5938448E11,8.5475636E11,9.9587E10,1.35261454E11,5.8133512E10,0E0,0E0,0E0,0E0,0E0,0E0,0E0,0E0,0E0,0E0,0E0,0E0,0E0,0E0,0E0,0E0,0E0,0E0,0E0,0E0,0E0,0E0,0E0,0E0,0E0,0E0,0E0,0E0,0E0,0E0,0E0,0E0,0E0,0E0,0E0,0E0,0E0,0E0,0E0,0E0,0E0,0E0,0E0,0E0,0E0,0E0,0E0,0E0,0E0,0E0,0E0,0E0,0E0,0E0,0E0,0E0,0E0,0E0,0E0,0E0,0E0,0E0,0E0],"parents":[2147483647,0,0,1,1,2,2,3,3,4,4,5,5,6,6,7,7,8,8,9,9,10,10,11,11,12,12,13,13,14,14,15,15,16,16,17,17,18,18,19,19,20,20,21,21,22,22,23,23,24,24,25,25,26,26,27,27,28,28,29,29,30,30,31,31,32,32,33,33,34,34,35,35,36,36,37,37,38,38,39,39,40,40,41,41,42,42,43,43,44,44,45,45,46,46,47,47,48,48,49,49,50,50,51,51,52,52,53,53,54,54,55,55,56,56,57,57,58,58,59,59,60,60,61,61],"right_children":[2,4,6,8,10,12,14,16,18,20,22,24,26,28,30,32,34,36,38,40,42,44,46,48,50,52,54,56,58,60,62,64,66,68,70,72,74,76,78,80,82,84,86,88,90,92,94,96,98,100,102,104,106,108,110,112,114,116,118,120,122,124,-1,-1,-1,-1,-1,-1,-1,-1,-1,-1,-1,-1,-1,-1,-1,-1,-1,-1,-1,-1,-1,-1,-1,-1,-1,-1,-1,-1,-1,-1,-1,-1,-1,-1,-1,-1,-1,-1,-1,-1,-1,-1,-1,-1,-1,-1,-1,-1,-1,-1,-1,-1,-1,-1,-1,-1,-1,-1,-1,-1,-1,-1,-1],"split_conditions":[3.3333334E-1,3.4375E-1,2.6086956E-1,9.2E3,1.985294E-1,1E0,1.14E2,9E3,2.3448277E-1,1E0,1.548913E-1,3.448276E-2,1.348E3,1.19E3,1.5E2,8.76E3,9.03E3,1.22E2,4.1081E4,1.07E3,8.125E-1,2.4264705E-1,1E0,1.3994566E-1,1E0,8.4E1,1.6983695E-1,3.7009802E-1,9E3,2.3641305E-1,6.3448274E-1,4.1002E4,1E0,2.622549E-1,2.8431374E-1,1E0,2.1813725E-1,1.6176471E-1,1E0,2.6086956E-1,1.25E-1,2.97E3,3.6413792E-1,9.6E1,1.1005435E-1,1E0,1.05E3,1E0,1E0,1E0,2.845E3,3.1724137E-1,3.0392158E-1,1.6847827E-1,3.448276E-2,1.15E3,1.04E3,1.1023E4,9.06E3,9.09E3,9.632353E-1,5.298913E-1,-1.1296216E4,-1.870026E3,-7.430457E3,-1.3283003E4,-2.4281797E4,1.6287446E4,4.357858E4,-2.2543308E3,2.9560508E4,-4.0125903E3,-9.450872E3,2.4360386E3,3.1623307E4,-1.6530064E4,-2.7520074E4,-1.2248633E4,3.1483928E4,1.2719785E4,-1.2037782E3,-3.925407E3,2.663411E3,-6.3166265E3,-1.2879196E4,-6.197826E2,1.8515912E4,2.1236795E4,1.5342429E2,4.4450086E4,1.822508E4,8.475198E3,-5.1349336E3,-3.5174816E4,-8.0307114E3,-1.327055E4,2.3970758E4,1.32227295E4,3.318409E4,2.609272E3,-7.016217E3,-1.4958499E4,2.2458865E3,-1.2063495E4,7.983254E3,-8.1329926E2,3.1691629E4,3.879739E3,4.5131617E4,3.26987E3,-6.8933037E3,1.7836312E3,2.2691594E4,1.1641813E4,2.9188182E4,1.0659043E4,-5.418268E2,2.5699508E4,1.9994069E3,1.7320568E4,4.9531626E3,5.1205146E3,4.2112125E4,2.373003E4,5.2553027E4],"split_indices":[1,7,11,0,2,36,50,0,13,16,12,13,0,0,50,0,0,50,49,0,7,2,24,12,22,50,12,2,0,12,13,49,14,2,2,20,2,2,38,11,2,0,13,50,12,25,0,44,14,23,0,13,2,12,13,0,0,49,0,0,2,12,0,0,0,0,0,0,0,0,0,0,0,0,0,0,0,0,0,0,0,0,0,0,0,0,0,0,0,0,0,0,0,0,0,0,0,0,0,0,0,0,0,0,0,0,0,0,0,0,0,0,0,0,0,0,0,0,0,0,0,0,0,0,0],"split_type":[0,0,0,0,0,0,0,0,0,0,0,0,0,0,0,0,0,0,0,0,0,0,0,0,0,0,0,0,0,0,0,0,0,0,0,0,0,0,0,0,0,0,0,0,0,0,0,0,0,0,0,0,0,0,0,0,0,0,0,0,0,0,0,0,0,0,0,0,0,0,0,0,0,0,0,0,0,0,0,0,0,0,0,0,0,0,0,0,0,0,0,0,0,0,0,0,0,0,0,0,0,0,0,0,0,0,0,0,0,0,0,0,0,0,0,0,0,0,0,0,0,0,0,0,0],"sum_hessian":[1.5926E4,7.342E3,8.584E3,6.074E3,1.268E3,2.764E3,5.82E3,5.571E3,5.03E2,8.91E2,3.77E2,1.329E3,1.435E3,4.452E3,1.368E3,5.256E3,3.15E2,2.5E2,2.53E2,8.06E2,8.5E1,1.17E2,2.6E2,8.9E1,1.24E3,1.09E2,1.326E3,2.18E2,4.234E3,1.289E3,7.9E1,5.109E3,1.47E2,1.56E2,1.59E2,2.35E2,1.5E1,9E1,1.63E2,1.14E2,6.92E2,7.7E1,8E0,5.9E1,5.8E1,2.51E2,9E0,1.7E1,7.2E1,1.118E3,1.22E2,7.2E1,3.7E1,1.24E2,1.202E3,1.4E2,7.8E1,3.285E3,9.49E2,3.02E2,9.87E2,7.5E1,4E0,4.041E3,1.068E3,1.06E2,4.1E1,1.47E2,9E0,1.41E2,1.8E1,1.12E2,1.23E2,1.2E1,3E0,3.6E1,5.4E1,1.62E2,1E0,7.3E1,4.1E1,1.92E2,5E2,5.4E1,2.3E1,6E0,2E0,2.5E1,3.4E1,2.6E1,3.2E1,1.81E2,7E1,5E0,4E0,1.5E1,2E0,6E1,1.2E1,1.005E3,1.13E2,6.7E1,5.5E1,1.9E1,5.3E1,1.1E1,2.6E1,1.21E2,3E0,9.2E1,1.11E3,1.15E2,2.5E1,2.9E1,4.9E1,1.97E2,3.088E3,1.65E2,7.84E2,2.21E2,8.1E1,9.79E2,8E0,6.8E1,7E0],"tree_param":{"num_deleted":"0","num_feature":"51","num_nodes":"125","size_leaf_vector":"1"}},{"base_weights":[1.24428795E2,1.7449984E3,-1.8855605E4,3.4800637E3,-1.6795066E4,-2.0045559E4,1.0587581E5,9.717884E3,-3.897544E3,-5.0411066E4,-1.3684649E4,-2.184934E4,3.928972E4,-1.0783682E4,1.6555352E5,2.9123005E3,1.7976926E4,-6.2002637E3,2.2827654E4,-5.282565E4,1.5029404E4,-2.2189055E4,-1.4240453E2,-5.4073696E3,-2.5676908E4,2.2974724E3,1.1616544E5,1.1121953E4,-1.4760934E4,1.8741145E4,6.4472777E4,5.847471E3,-1.5028301E4,2.057693E4,-2.3104664E4,1.0409938E3,-1.1136328E4,8.419071E3,4.284539E4,-5.4724473E4,2.9342969E4,-1.9736527E4,-6.735318E4,1.8993584E4,-3.091582E4,-1.7907443E4,5.2346812E4,-2.359868E4,-6.0800684E4,-2.9265498E4,1.4071505E5,3.7548297E4,6.561594E4,4.6371E3,-2.8247815E2,-6.2410654E3,2.599358E3,-4.78993E3,7.654877E4,6.4341587E3,-2.609263E4,4.7386016E4,-9.799008E3,1.1833316E2,2.7944914E4,2.5943764E4,-3.5060425E3,8.3244795E3,-9.927945E3,2.7549485E3,2.6677896E4,-1.7429691E4,-1.8836517E2,2.1115547E3,1.1092781E4,-5.5088477E3,-2.2473209E4,-2.8440547E4,-1.4315075E4,-2.263165E3,1.8609256E4,3.9563682E3,-1.3344983E4,-1.0201054E4,1.9416844E3,-3.8612316E1,2.5780889E4,-1.5868687E4,-6.494958E3,-2.4706334E4,9.282513E3,-2.217781E4,1.3037451E4,4.72019E4,1.1132494E4,2.2701945E4,-3.4398855E4],"categories":[],"categories_nodes":[],"categories_segments":[],"categories_sizes":[],"default_left":[0,0,0,0,0,0,0,0,0,0,0,0,0,0,0,0,0,0,0,0,0,0,0,0,0,0,0,0,0,0,0,0,0,0,0,0,0,0,0,0,0,0,0,0,0,0,0,0,0,0,0,0,0,0,0,0,0,0,0,0,0,0,0,0,0,0,0,0,0,0,0,0,0,0,0,0,0,0,0,0,0,0,0,0,0,0,0,0,0,0,0,0,0,0,0,0,0],"id":10,"left_children":[1,3,5,7,9,11,13,15,17,19,21,23,25,27,29,31,33,35,37,39,-1,41,43,45,47,49,51,53,-1,-1,-1,55,57,59,61,63,65,67,69,71,73,75,77,79,81,83,85,87,89,91,93,95,-1,-1,-1,-1,-1,-1,-1,-1,-1,-1,-1,-1,-1,-1,-1,-1,-1,-1,-1,-1,-1,-1,-1,-1,-1,-1,-1,-1,-1,-1,-1,-1,-1,-1,-1,-1,-1,-1,-1,-1,-1,-1,-1,-1,-1],"loss_changes":[4.8992302E11,4.7212714E11,1.8809825E11,6.176288E11,1.3063727E11,1.3378706E11,8.532893E10,4.086893E11,3.7855494E11,2.8371255E10,1.3255605E11,7.575811E10,1.0495392E11,4.755244E9,2.7276444E10,2.1009089E11,3.5135383E11,2.0239022E11,1.4039178E11,1.7832313E10,0E0,7.698239E10,2.6263868E11,1.6625972E11,6.995444E10,1.1770872E11,8.853779E10,2.2373837E8,0E0,0E0,0E0,2.5754557E11,1.462732E11,2.9108653E11,3.443722E11,1.366967E11,1.8193786E11,2.2960162E11,3.1562557E11,1.8583454E10,2.504919E8,4.9557307E10,1.4879949E10,3.1454547E11,1.0290879E11,7.438703E10,7.22787E10,5.1667206E10,1.0932745E11,7.466599E10,2.7734917E9,5.5101125E10,0E0,0E0,0E0,0E0,0E0,0E0,0E0,0E0,0E0,0E0,0E0,0E0,0E0,0E0,0E0,0E0,0E0,0E0,0E0,0E0,0E0,0E0,0E0,0E0,0E0,0E0,0E0,0E0,0E0,0E0,0E0,0E0,0E0,0E0,0E0,0E0,0E0,0E0,0E0,0E0,0E0,0E0,0E0,0E0,0E0],"parents":[2147483647,0,0,1,1,2,2,3,3,4,4,5,5,6,6,7,7,8,8,9,9,10,10,11,11,12,12,13,13,14,14,15,15,16,16,17,17,18,18,19,19,21,21,22,22,23,23,24,24,25,25,26,26,27,27,31,31,32,32,33,33,34,34,35,35,36,36,37,37,38,38,39,39,40,40,41,41,42,42,43,43,44,44,45,45,46,46,47,47,48,48,49,49,50,50,51,51],"right_children":[2,4,6,8,10,12,14,16,18,20,22,24,26,28,30,32,34,36,38,40,-1,42,44,46,48,50,52,54,-1,-1,-1,56,58,60,62,64,66,68,70,72,74,76,78,80,82,84,86,88,90,92,94,96,-1,-1,-1,-1,-1,-1,-1,-1,-1,-1,-1,-1,-1,-1,-1,-1,-1,-1,-1,-1,-1,-1,-1,-1,-1,-1,-1,-1,-1,-1,-1,-1,-1,-1,-1,-1,-1,-1,-1,-1,-1,-1,-1,-1,-1],"split_conditions":[1E0,1E0,1E0,1E0,1.7655173E-1,8.5294116E-1,3.1006E4,2.769608E-1,5.980392E-1,1E0,8E3,1.4E3,8.47E3,6.666667E-1,4.1168478E-1,1E0,6.847826E-1,2.2758621E-1,5.217391E-1,1E0,1.5029404E4,8.333333E-1,9.255E3,1E0,6.2009805E-1,1E0,4.388587E-1,1.41E3,-1.4760934E4,1.8741145E4,6.4472777E4,6.8627454E-2,1E0,1E0,1.1004E4,8.333333E-1,1.0326087E-1,4.347826E-1,6.15E3,1E0,1.3E3,1E0,2.6086956E-1,3.8016E4,4.0275863E-1,1.09E3,3.4068626E-1,1.3793103E-1,7.241848E-1,1E0,6.154891E-1,1E0,6.561594E4,4.6371E3,-2.8247815E2,-6.2410654E3,2.599358E3,-4.78993E3,7.654877E4,6.4341587E3,-2.609263E4,4.7386016E4,-9.799008E3,1.1833316E2,2.7944914E4,2.5943764E4,-3.5060425E3,8.3244795E3,-9.927945E3,2.7549485E3,2.6677896E4,-1.7429691E4,-1.8836517E2,2.1115547E3,1.1092781E4,-5.5088477E3,-2.2473209E4,-2.8440547E4,-1.4315075E4,-2.263165E3,1.8609256E4,3.9563682E3,-1.3344983E4,-1.0201054E4,1.9416844E3,-3.8612316E1,2.5780889E4,-1.5868687E4,-6.494958E3,-2.4706334E4,9.282513E3,-2.217781E4,1.3037451E4,4.72019E4,1.1132494E4,2.2701945E4,-3.4398855E4],"split_indices":[22,23,32,20,13,2,49,2,2,32,0,0,0,1,12,36,12,13,11,46,0,1,0,36,2,48,12,0,0,0,0,2,1,24,49,1,12,11,0,41,0,31,11,49,13,0,2,13,12,16,12,3,0,0,0,0,0,0,0,0,0,0,0,0,0,0,0,0,0,0,0,0,0,0,0,0,0,0,0,0,0,0,0,0,0,0,0,0,0,0,0,0,0,0,0,0,0],"split_type":[0,0,0,0,0,0,0,0,0,0,0,0,0,0,0,0,0,0,0,0,0,0,0,0,0,0,0,0,0,0,0,0,0,0,0,0,0,0,0,0,0,0,0,0,0,0,0,0,0,0,0,0,0,0,0,0,0,0,0,0,0,0,0,0,0,0,0,0,0,0,0,0,0,0,0,0,0,0,0,0,0,0,0,0,0,0,0,0,0,0,0,0,0,0,0,0,0],"sum_hessian":[1.5926E4,1.4674E4,1.252E3,1.3419E4,1.255E3,1.241E3,1.1E1,7.271E3,6.148E3,1.05E2,1.15E3,1.205E3,3.6E1,4E0,7E0,3.987E3,3.284E3,5.661E3,4.87E2,1.03E2,2E0,7.06E2,4.44E2,2.28E2,9.77E2,2.5E1,1.1E1,3E0,1E0,3E0,4E0,3.427E3,5.6E2,3.089E3,1.95E2,2.295E3,3.366E3,2.84E2,2.03E2,1.01E2,2E0,6.71E2,3.5E1,2.74E2,1.7E2,1.88E2,4E1,9.24E2,5.3E1,2.1E1,4E0,7E0,4E0,2E0,1E0,3.27E2,3.1E3,5.59E2,1E0,3.065E3,2.4E1,9E0,1.86E2,2.28E3,1.5E1,1.8E1,3.348E3,1.94E2,9E1,1.18E2,8.5E1,9.5E1,6E0,1E0,1E0,6.56E2,1.5E1,1.3E1,2.2E1,1.7E2,1.04E2,4E1,1.3E2,1.13E2,7.5E1,1.6E1,2.4E1,5.6E1,8.68E2,4.3E1,1E1,1.3E1,8E0,3E0,1E0,6E0,1E0],"tree_param":{"num_deleted":"0","num_feature":"51","num_nodes":"97","size_leaf_vector":"1"}},{"base_weights":[1.0385234E2,-4.9506256E2,4.027166E4,-1.4483972E3,2.5658637E4,3.430092E4,1.4787189E5,-6.2252456E3,2.9856077E3,1.2735991E5,2.4118693E4,2.1496723E4,7.49654E4,2.0710816E5,2.3519494E4,-5.572149E2,-1.1770074E4,2.0512588E3,3.6173703E4,8.714325E3,4.1176445E4,7.484124E4,2.0913947E4,3.6124243E3,5.1340586E4,1.5439453E5,4.2493543E4,6.882047E4,7.658147E3,9.587096E3,-1.5345703E3,-1.0235785E4,3.454866E3,-1.3065445E4,2.2654746E4,1.3054851E3,3.7588316E4,-5.924453E4,4.3114496E4,1.138954E5,2.298683E4,1.8092223E4,7.317967E4,-9.303943E3,5.4526586E4,-2.2928281E4,6.235986E4,-1.6042819E4,1.7306216E5,-3.6415734E4,5.51689E4,6.456469E2,-6.6980205E3,-4.1996377E3,2.0096826E3,-4.780668E3,-4.624126E1,3.3961208E3,2.4931574E4,8.5834705E2,-3.497828E3,5.561047E3,2.84268E4,-2.3552836E4,3.1569658E4,4.335044E4,1.0945258E4,-1.3717341E4,3.7792344E4,1.9569764E4,-1.3977844E3,9.779086E2,8.609326E3,1.006241E4,4.7451957E4,5.917321E3,-1.4176288E4,7.8849355E3,6.739226E4,-2.2339313E2,-1.2157879E4,2.0912105E4,-1.5173963E4,1.1390312E3,6.0287E4,-3.141572E3,-1.4030902E4,1.9736105E4,-1.2274113E4],"categories":[],"categories_nodes":[],"categories_segments":[],"categories_sizes":[],"default_left":[0,0,0,0,0,0,0,0,0,0,0,0,0,0,0,0,0,0,0,0,0,0,0,0,0,0,0,0,0,0,0,0,0,0,0,0,0,0,0,0,0,0,0,0,0,0,0,0,0,0,0,0,0,0,0,0,0,0,0,0,0,0,0,0,0,0,0,0,0,0,0,0,0,0,0,0,0,0,0,0,0,0,0,0,0,0,0,0,0],"id":11,"left_children":[1,3,5,7,9,11,13,15,17,19,21,23,25,27,29,31,33,35,37,-1,-1,39,41,43,45,47,49,-1,-1,-1,-1,51,53,55,57,59,61,63,65,67,69,71,73,75,77,79,81,-1,83,85,87,-1,-1,-1,-1,-1,-1,-1,-1,-1,-1,-1,-1,-1,-1,-1,-1,-1,-1,-1,-1,-1,-1,-1,-1,-1,-1,-1,-1,-1,-1,-1,-1,-1,-1,-1,-1,-1,-1],"loss_changes":[3.831774E11,3.9133925E11,1.4526176E11,3.2075592E11,8.3379225E10,1.1449926E11,8.3522994E10,2.2910547E11,2.4347256E11,3.7953782E9,8.702614E10,9.108347E10,1.3013746E11,2.6528481E10,1.3714936E9,1.4006069E11,1.646208E11,2.0243078E11,1.4494417E11,0E0,0E0,6.2186095E10,7.448047E10,7.153092E10,5.3806694E10,6.7461448E10,4.1016934E10,0E0,0E0,0E0,0E0,1.583676E11,1.4447729E11,1.3162375E11,9.087155E10,1.5097923E11,1.692369E11,5.5791194E10,1.2984553E11,4.046522E10,1.782288E10,7.682949E10,8.228864E10,9.677439E10,9.979732E10,3.483307E9,4.999376E10,0E0,6.533903E10,1.1219574E9,3.737894E10,0E0,0E0,0E0,0E0,0E0,0E0,0E0,0E0,0E0,0E0,0E0,0E0,0E0,0E0,0E0,0E0,0E0,0E0,0E0,0E0,0E0,0E0,0E0,0E0,0E0,0E0,0E0,0E0,0E0,0E0,0E0,0E0,0E0,0E0,0E0,0E0,0E0,0E0],"parents":[2147483647,0,0,1,1,2,2,3,3,4,4,5,5,6,6,7,7,8,8,9,9,10,10,11,11,12,12,13,13,14,14,15,15,16,16,17,17,18,18,21,21,22,22,23,23,24,24,25,25,26,26,31,31,32,32,33,33,34,34,35,35,36,36,37,37,38,38,39,39,40,40,41,41,42,42,43,43,44,44,45,45,46,46,48,48,49,49,50,50],"right_children":[2,4,6,8,10,12,14,16,18,20,22,24,26,28,30,32,34,36,38,-1,-1,40,42,44,46,48,50,-1,-1,-1,-1,52,54,56,58,60,62,64,66,68,70,72,74,76,78,80,82,-1,84,86,88,-1,-1,-1,-1,-1,-1,-1,-1,-1,-1,-1,-1,-1,-1,-1,-1,-1,-1,-1,-1,-1,-1,-1,-1,-1,-1,-1,-1,-1,-1,-1,-1,-1,-1,-1,-1,-1,-1],"split_conditions":[1E0,1E0,4.9754903E-1,1E0,5.298913E-2,1.11E2,1E0,3.5310346E-1,7.867647E-1,3.602941E-1,1.1053E4,5.9375E-1,4.137931E-2,3.806E3,1.02E3,2.6086956E-1,1E0,1.5E2,7.6E1,8.714325E3,4.1176445E4,2.94E3,8.333333E-1,4.728E3,1.2990196E-1,4.701087E-2,1.3003E4,6.882047E4,7.658147E3,9.587096E3,-1.5345703E3,4.02E3,1.3235295E-1,8.97E3,8.211E3,9.255E3,1.8382353E-1,1E0,1.502E3,1.3793103E-1,2.8827587E-1,1.05E2,6.7663044E-1,2.6086956E-1,4.5652175E-1,8.2E1,4.1421568E-1,-1.6042819E4,1.7156863E-1,2.1875E-1,9.28E3,6.456469E2,-6.6980205E3,-4.1996377E3,2.0096826E3,-4.780668E3,-4.624126E1,3.3961208E3,2.4931574E4,8.5834705E2,-3.497828E3,5.561047E3,2.84268E4,-2.3552836E4,3.1569658E4,4.335044E4,1.0945258E4,-1.3717341E4,3.7792344E4,1.9569764E4,-1.3977844E3,9.779086E2,8.609326E3,1.006241E4,4.7451957E4,5.917321E3,-1.4176288E4,7.8849355E3,6.739226E4,-2.2339313E2,-1.2157879E4,2.0912105E4,-1.5173963E4,1.1390312E3,6.0287E4,-3.141572E3,-1.4030902E4,1.9736105E4,-1.2274113E4],"split_indices":[44,48,2,3,12,50,15,13,2,2,49,7,13,0,0,11,26,50,50,0,0,0,1,0,2,12,49,0,0,0,0,0,2,0,0,0,2,1,0,13,13,50,12,11,12,50,2,0,2,12,0,0,0,0,0,0,0,0,0,0,0,0,0,0,0,0,0,0,0,0,0,0,0,0,0,0,0,0,0,0,0,0,0,0,0,0,0,0,0],"split_type":[0,0,0,0,0,0,0,0,0,0,0,0,0,0,0,0,0,0,0,0,0,0,0,0,0,0,0,0,0,0,0,0,0,0,0,0,0,0,0,0,0,0,0,0,0,0,0,0,0,0,0,0,0,0,0,0,0,0,0,0,0,0,0,0,0,0,0,0,0,0,0,0,0,0,0,0,0,0,0,0,0,0,0,0,0,0,0,0,0],"sum_hessian":[1.5926E4,1.5693E4,2.33E2,1.5142E4,5.51E2,2.22E2,1.1E1,7.289E3,7.853E3,7E0,5.44E2,1.7E2,5.2E1,7E0,4E0,3.605E3,3.684E3,7.639E3,2.14E2,1E0,6E0,3.1E1,5.13E2,1.07E2,6.3E1,1.4E1,3.8E1,6E0,1E0,3E0,1E0,1.056E3,2.549E3,3.551E3,1.33E2,7.483E3,1.56E2,1.4E1,2E2,1.7E1,1.4E1,4.88E2,2.5E1,8.6E1,2.1E1,8E0,5.5E1,1E0,1.3E1,5E0,3.3E1,5.22E2,5.34E2,3.99E2,2.15E3,2.905E3,6.46E2,1.13E2,2E1,6.682E3,8.01E2,1.18E2,3.8E1,1.3E1,1E0,1.1E1,1.89E2,1E0,1.6E1,5E0,9E0,2.04E2,2.84E2,1.8E1,7E0,4.9E1,3.7E1,1.9E1,2E0,4E0,4E0,5.2E1,3E0,2E0,1.1E1,2E0,3E0,3E1,3E0],"tree_param":{"num_deleted":"0","num_feature":"51","num_nodes":"89","size_leaf_vector":"1"}},{"base_weights":[1.00869644E2,-1.059348E4,1.6805869E3,-1.0977136E4,1.4851714E5,4.2624487E3,-5.582425E3,-1.3071249E4,1.3622078E4,5.3604977E4,4.1779033E3,1.613811E3,3.257019E4,-1.8486895E4,2.8822544E3,-1.5243991E4,6.633865E3,-1.9382565E3,7.4036055E4,6.126879E3,-1.6095252E4,5.028479E4,1.1557736E4,-2.5054082E4,-2.5542314E3,2.2389412E3,1.0312515E5,-3.622109E4,-1.3189256E4,5.03594E4,-1.8563598E4,-6.936814E3,3.379761E4,1.0695789E5,2.171656E4,5.3171206E3,1.337832E5,-2.9413783E4,-8.0299214E3,4.432089E4,1.4759983E5,1.0318833E4,7.625372E4,-2.59913E4,1.1442176E5,-2.2784732E4,1.0652987E4,1.1003241E4,-5.339268E3,1.3709447E5,-1.607175E4,-8.669983E3,-1.4763907E4,-1.8299427E3,-5.8065566E3,7.6823677E3,3.424415E4,1.6846877E3,-7.306413E3,3.7945422E3,-4.0381484E3,4.0741248E3,2.2667805E4,2.3305832E4,4.2346445E4,1.1523586E4,-1.5691159E4,9.815569E2,9.582572E3,2.0811287E4,8.9072945E4,-8.97622E3,5.003424E4,-4.381052E3,4.2976978E3,1.1974842E4,3.839963E4,5.9614156E4,2.5782895E4,8.139055E3,8.133873E1,-8.660999E3,3.14199E3,7.4858836E4,3.1418384E3,-3.933062E2,-1.2342637E4,1.3436216E4,4.5612735E2,4.317443E3,-3.5236052E3,3.2800473E4,-1.9257899E3,4.500129E4,1.1994094E3,4.2463125E3,-9.259575E3],"categories":[],"categories_nodes":[],"categories_segments":[],"categories_sizes":[],"default_left":[0,0,0,0,0,0,0,0,0,0,0,0,0,0,0,0,0,0,0,0,0,0,0,0,0,0,0,0,0,0,0,0,0,0,0,0,0,0,0,0,0,0,0,0,0,0,0,0,0,0,0,0,0,0,0,0,0,0,0,0,0,0,0,0,0,0,0,0,0,0,0,0,0,0,0,0,0,0,0,0,0,0,0,0,0,0,0,0,0,0,0,0,0,0,0,0,0],"id":12,"left_children":[1,3,5,7,9,11,13,15,17,-1,-1,19,21,23,25,27,29,31,33,35,37,39,41,43,45,47,49,51,53,55,57,59,61,63,65,67,69,71,73,75,77,79,-1,81,83,85,87,89,91,93,95,-1,-1,-1,-1,-1,-1,-1,-1,-1,-1,-1,-1,-1,-1,-1,-1,-1,-1,-1,-1,-1,-1,-1,-1,-1,-1,-1,-1,-1,-1,-1,-1,-1,-1,-1,-1,-1,-1,-1,-1,-1,-1,-1,-1,-1,-1],"loss_changes":[2.6908934E11,1.2676989E11,2.602653E11,1.0557474E11,1.7811988E10,7.6763634E11,3.976585E11,8.0848585E10,1.5149344E11,0E0,0E0,7.484901E11,3.254898E11,1.5081649E11,1.415773E11,7.275328E10,2.0806807E11,2.327743E10,5.4518202E10,7.7074425E11,2.0407357E11,2.6913748E11,1.182121E11,1.36438415E11,1.1299634E11,1.4524783E11,5.888988E10,1.2940231E10,6.7593404E10,1.06017096E11,1.6939708E10,1.4735823E10,1.2482757E10,9.054355E9,1.9310295E10,4.0378617E11,4.732487E11,7.630343E10,1.7449936E11,1.6038337E11,6.801326E10,6.772774E10,0E0,1.068474E11,9.569684E10,6.5777672E10,7.973593E10,7.832568E10,1.459799E11,1.830106E10,2.2254792E9,0E0,0E0,0E0,0E0,0E0,0E0,0E0,0E0,0E0,0E0,0E0,0E0,0E0,0E0,0E0,0E0,0E0,0E0,0E0,0E0,0E0,0E0,0E0,0E0,0E0,0E0,0E0,0E0,0E0,0E0,0E0,0E0,0E0,0E0,0E0,0E0,0E0,0E0,0E0,0E0,0E0,0E0,0E0,0E0,0E0,0E0],"parents":[2147483647,0,0,1,1,2,2,3,3,4,4,5,5,6,6,7,7,8,8,11,11,12,12,13,13,14,14,15,15,16,16,17,17,18,18,19,19,20,20,21,21,22,22,23,23,24,24,25,25,26,26,27,27,28,28,29,29,30,30,31,31,32,32,33,33,34,34,35,35,36,36,37,37,38,38,39,39,40,40,41,41,43,43,44,44,45,45,46,46,47,47,48,48,49,49,50,50],"right_children":[2,4,6,8,10,12,14,16,18,-1,-1,20,22,24,26,28,30,32,34,36,38,40,42,44,46,48,50,52,54,56,58,60,62,64,66,68,70,72,74,76,78,80,-1,82,84,86,88,90,92,94,96,-1,-1,-1,-1,-1,-1,-1,-1,-1,-1,-1,-1,-1,-1,-1,-1,-1,-1,-1,-1,-1,-1,-1,-1,-1,-1,-1,-1,-1,-1,-1,-1,-1,-1,-1,-1,-1,-1,-1,-1,-1,-1,-1,-1,-1,-1],"split_conditions":[1.6666667E-1,8.308824E-1,4.5041E4,1E0,8.2E3,4.4021E4,6.2051E4,8.97E3,6.758621E-1,5.3604977E4,4.1779033E3,8.68E3,9.09E3,8E3,1E0,2.6960785E-2,9.03E3,8.793E3,7.034483E-1,3.8016E4,2.867647E-1,5.4901963E-1,9.6875E-1,1E0,4.5064E4,4.1E3,8.77451E-1,4.6896553E-1,2.05E3,1.2254902E-1,3.448276E-2,1.19E3,1.1029412E-1,1.06E3,3.4375E-1,3.5011E4,4.8097825E-1,8.333333E-1,6.5217394E-1,1E0,9.03E3,9.6551724E-2,7.625372E4,7.867647E-1,1.8620689E-1,4.5059E4,1.1310345E-1,7.2043E4,4.4836957E-2,1E0,4E3,-8.669983E3,-1.4763907E4,-1.8299427E3,-5.8065566E3,7.6823677E3,3.424415E4,1.6846877E3,-7.306413E3,3.7945422E3,-4.0381484E3,4.0741248E3,2.2667805E4,2.3305832E4,4.2346445E4,1.1523586E4,-1.5691159E4,9.815569E2,9.582572E3,2.0811287E4,8.9072945E4,-8.97622E3,5.003424E4,-4.381052E3,4.2976978E3,1.1974842E4,3.839963E4,5.9614156E4,2.5782895E4,8.139055E3,8.133873E1,-8.660999E3,3.14199E3,7.4858836E4,3.1418384E3,-3.933062E2,-1.2342637E4,1.3436216E4,4.5612735E2,4.317443E3,-3.5236052E3,3.2800473E4,-1.9257899E3,4.500129E4,1.1994094E3,4.2463125E3,-9.259575E3],"split_indices":[1,2,49,21,0,49,49,0,13,0,0,0,0,0,32,2,0,0,13,49,2,2,7,33,49,0,2,13,0,2,13,0,2,0,7,49,12,1,11,21,0,13,0,2,13,49,13,49,12,6,0,0,0,0,0,0,0,0,0,0,0,0,0,0,0,0,0,0,0,0,0,0,0,0,0,0,0,0,0,0,0,0,0,0,0,0,0,0,0,0,0,0,0,0,0,0,0],"split_type":[0,0,0,0,0,0,0,0,0,0,0,0,0,0,0,0,0,0,0,0,0,0,0,0,0,0,0,0,0,0,0,0,0,0,0,0,0,0,0,0,0,0,0,0,0,0,0,0,0,0,0,0,0,0,0,0,0,0,0,0,0,0,0,0,0,0,0,0,0,0,0,0,0,0,0,0,0,0,0,0,0,0,0,0,0,0,0,0,0,0,0,0,0,0,0,0,0],"sum_hessian":[1.5926E4,2.049E3,1.3877E4,2.045E3,4E0,1.0238E4,3.639E3,1.885E3,1.6E2,3E0,1E0,9.363E3,8.75E2,1.441E3,2.198E3,1.698E3,1.87E2,1.28E2,3.2E1,7.462E3,1.901E3,4.74E2,4.01E2,1.02E3,4.21E2,2.185E3,1.3E1,1.5E2,1.548E3,6.8E1,1.19E2,1.13E2,1.5E1,1.9E1,1.3E1,7.416E3,4.6E1,7.16E2,1.185E3,4.48E2,2.6E1,4E2,1E0,1.014E3,6E0,1.66E2,2.55E2,1.013E3,1.172E3,1E1,3E0,9.8E1,5.2E1,7.21E2,8.27E2,5E1,1.8E1,2.3E1,9.6E1,2.8E1,8.5E1,1.1E1,4E0,1.2E1,7E0,1.1E1,2E0,6.888E3,5.28E2,3.4E1,1.2E1,7.15E2,1E0,9.16E2,2.69E2,4.27E2,2.1E1,1.3E1,1.3E1,1.49E2,2.51E2,9.4E2,7.4E1,2E0,4E0,7.7E1,8.9E1,5.3E1,2.02E2,8.82E2,1.31E2,1E1,1.162E3,9E0,1E0,1E0,2E0],"tree_param":{"num_deleted":"0","num_feature":"51","num_nodes":"97","size_leaf_vector":"1"}},{"base_weights":[1.132494E2,-1.1384647E3,1.1892378E4,-3.1987612E3,6.0347734E3,2.6337139E4,5.502091E3,8.62931E3,-4.5852544E3,-1.7846896E4,7.9513057E3,2.487896E4,1.5668019E5,1.2649788E4,-1.6371222E4,-1.1375476E3,2.703795E4,-3.037484E3,-1.5665672E4,-3.8474E4,5.108032E3,2.3671584E3,1.4884469E4,1.4773653E4,3.729382E4,-1.3120829E3,1.9803703E5,6.684395E4,1.0307711E4,-2.05129E4,4.4524312E4,7.0351987E3,-3.350483E4,1.3176746E4,6.1282156E4,-6.700337E3,2.2994368E3,-1.9216096E4,2.3265328E4,-8.676938E4,-1.9682557E4,2.3018633E4,-4.5808938E4,1.62482295E4,-3.262958E3,1.1453026E4,5.2372594E4,4.456808E4,8.77396E3,4.7251758E4,-8.9603906E2,6.744087E4,1.7660926E4,4.090659E4,1.1499989E5,4.137921E4,6.69028E3,-2.9129055E4,1.2192162E4,-1.6870332E4,1.00971805E5,1.625124E1,8.588846E3,-1.0905126E4,9.555582E3,2.1572027E4,2.7811443E3,4.6060285E4,1.3544346E4,-2.8017815E3,8.4186194E2,4.4165293E3,-4.986259E2,6.363207E3,-6.8001523E3,2.6974012E4,3.2649373E3,-2.7762088E4,1.6416207E4,5.1878086E3,-1.2197019E4,-2.7871074E3,1.4435108E4,-2.0680041E4,-7.968884E3,2.730731E3,2.0277086E4,1.9529457E2,-8.815719E3,8.8702805E1,6.98119E3,1.801855E4,-6.89692E3,8.302827E3,3.8246234E4,-6.8732263E2,6.711663E3,3.0541303E4,1.2089316E4,-2.3193152E4,1.0092789E4,-1.217741E4,1.6548256E4,3.6147312E4,9.013262E3,5.3818906E3,4.252642E4,-3.2767166E3,4.2163003E3,-5.609345E3,-1.9350668E4,8.205519E3,-1.2185711E4,-1.0925559E4,1.8155795E3,-2.2913416E3,3.465082E4],"categories":[],"categories_nodes":[],"categories_segments":[],"categories_sizes":[],"default_left":[0,0,0,0,0,0,0,0,0,0,0,0,0,0,0,0,0,0,0,0,0,0,0,0,0,0,0,0,0,0,0,0,0,0,0,0,0,0,0,0,0,0,0,0,0,0,0,0,0,0,0,0,0,0,0,0,0,0,0,0,0,0,0,0,0,0,0,0,0,0,0,0,0,0,0,0,0,0,0,0,0,0,0,0,0,0,0,0,0,0,0,0,0,0,0,0,0,0,0,0,0,0,0,0,0,0,0,0,0,0,0,0,0,0,0,0,0],"id":13,"left_children":[1,3,5,7,9,11,13,15,17,19,21,23,25,27,29,31,33,35,37,39,41,43,45,47,49,-1,51,53,55,57,59,61,63,65,67,69,71,73,75,77,79,81,83,85,87,89,91,93,95,97,99,-1,-1,101,103,105,107,109,111,113,115,-1,-1,-1,-1,-1,-1,-1,-1,-1,-1,-1,-1,-1,-1,-1,-1,-1,-1,-1,-1,-1,-1,-1,-1,-1,-1,-1,-1,-1,-1,-1,-1,-1,-1,-1,-1,-1,-1,-1,-1,-1,-1,-1,-1,-1,-1,-1,-1,-1,-1,-1,-1,-1,-1,-1,-1],"loss_changes":[2.3484285E11,2.1280729E11,1.4108354E11,1.8348478E11,1.472009E11,8.524159E10,1.6624422E11,2.1110954E11,1.7167478E11,1.133615E11,1.1514431E11,5.7786106E10,3.4169528E10,1.0097945E11,6.699226E10,2.0339442E11,1.9238152E11,1.7178683E11,1.7004495E11,1.1264218E11,1.0501715E11,1.28925745E11,1.7010328E11,4.5728383E10,7.914311E10,0E0,1.6656302E9,3.6514005E10,8.615801E10,6.967595E10,6.0618187E10,9.255914E10,2.9984506E10,6.609316E10,1.6721422E11,1.307553E11,1.7605342E11,1.5743628E11,8.4022166E10,3.3642283E10,7.205139E10,6.9373846E10,1.1520565E10,1.7401951E11,1.2005235E11,1.6045844E11,6.570292E10,5.6700592E10,3.2551723E10,5.849206E10,1.18728114E11,0E0,0E0,2.8958E10,1.5114732E9,1.8567777E11,8.964694E10,7.074623E10,4.2741928E10,4.2532027E9,1.5085969E10,0E0,0E0,0E0,0E0,0E0,0E0,0E0,0E0,0E0,0E0,0E0,0E0,0E0,0E0,0E0,0E0,0E0,0E0,0E0,0E0,0E0,0E0,0E0,0E0,0E0,0E0,0E0,0E0,0E0,0E0,0E0,0E0,0E0,0E0,0E0,0E0,0E0,0E0,0E0,0E0,0E0,0E0,0E0,0E0,0E0,0E0,0E0,0E0,0E0,0E0,0E0,0E0,0E0,0E0,0E0,0E0],"parents":[2147483647,0,0,1,1,2,2,3,3,4,4,5,5,6,6,7,7,8,8,9,9,10,10,11,11,12,12,13,13,14,14,15,15,16,16,17,17,18,18,19,19,20,20,21,21,22,22,23,23,24,24,26,26,27,27,28,28,29,29,30,30,31,31,32,32,33,33,34,34,35,35,36,36,37,37,38,38,39,39,40,40,41,41,42,42,43,43,44,44,45,45,46,46,47,47,48,48,49,49,50,50,53,53,54,54,55,55,56,56,57,57,58,58,59,59,60,60],"right_children":[2,4,6,8,10,12,14,16,18,20,22,24,26,28,30,32,34,36,38,40,42,44,46,48,50,-1,52,54,56,58,60,62,64,66,68,70,72,74,76,78,80,82,84,86,88,90,92,94,96,98,100,-1,-1,102,104,106,108,110,112,114,116,-1,-1,-1,-1,-1,-1,-1,-1,-1,-1,-1,-1,-1,-1,-1,-1,-1,-1,-1,-1,-1,-1,-1,-1,-1,-1,-1,-1,-1,-1,-1,-1,-1,-1,-1,-1,-1,-1,-1,-1,-1,-1,-1,-1,-1,-1,-1,-1,-1,-1,-1,-1,-1,-1,-1,-1],"split_conditions":[5E-1,5E-1,7.172414E-2,1.06E3,8.1E1,5.980392E-1,5.5E3,1.04E3,5.448276E-1,4.9019608E-1,1E0,2.4264705E-1,1.6666667E-1,1.1005435E-1,9.82E3,1.02E3,2.1813725E-1,8E3,1E0,1E0,4.88E3,1E0,8.77451E-1,1.3E3,9.308E3,-1.3120829E3,6.7401963E-1,3.4896553E-1,1.1004E4,9.0625E-1,2.9347825E-1,5.1724136E-1,3.6519608E-1,1.2771739E-1,1E0,4.7826087E-1,8.42E3,1.1004E4,1.348E3,1E0,4.375E-1,2.1013E4,2.7173913E-1,6.494565E-1,1E0,1.05E2,1E0,6.896552E-2,4.3018E4,2.0689655E-2,9.45E3,6.744087E4,1.7660926E4,1.08E3,2.6086956E-1,9.0625E-1,2.413793E-1,3.872549E-1,9.16E3,1E0,6.6176474E-2,1.625124E1,8.588846E3,-1.0905126E4,9.555582E3,2.1572027E4,2.7811443E3,4.6060285E4,1.3544346E4,-2.8017815E3,8.4186194E2,4.4165293E3,-4.986259E2,6.363207E3,-6.8001523E3,2.6974012E4,3.2649373E3,-2.7762088E4,1.6416207E4,5.1878086E3,-1.2197019E4,-2.7871074E3,1.4435108E4,-2.0680041E4,-7.968884E3,2.730731E3,2.0277086E4,1.9529457E2,-8.815719E3,8.8702805E1,6.98119E3,1.801855E4,-6.89692E3,8.302827E3,3.8246234E4,-6.8732263E2,6.711663E3,3.0541303E4,1.2089316E4,-2.3193152E4,1.0092789E4,-1.217741E4,1.6548256E4,3.6147312E4,9.013262E3,5.3818906E3,4.252642E4,-3.2767166E3,4.2163003E3,-5.609345E3,-1.9350668E4,8.205519E3,-1.2185711E4,-1.0925559E4,1.8155795E3,-2.2913416E3,3.465082E4],"split_indices":[7,1,13,0,50,2,0,0,13,2,3,2,1,12,0,0,2,0,21,25,0,36,2,0,0,0,2,13,49,7,12,13,2,12,3,11,0,49,0,22,12,49,12,12,17,50,23,13,49,13,0,0,0,0,11,7,13,2,0,3,2,0,0,0,0,0,0,0,0,0,0,0,0,0,0,0,0,0,0,0,0,0,0,0,0,0,0,0,0,0,0,0,0,0,0,0,0,0,0,0,0,0,0,0,0,0,0,0,0,0,0,0,0,0,0,0,0],"split_type":[0,0,0,0,0,0,0,0,0,0,0,0,0,0,0,0,0,0,0,0,0,0,0,0,0,0,0,0,0,0,0,0,0,0,0,0,0,0,0,0,0,0,0,0,0,0,0,0,0,0,0,0,0,0,0,0,0,0,0,0,0,0,0,0,0,0,0,0,0,0,0,0,0,0,0,0,0,0,0,0,0,0,0,0,0,0,0,0,0,0,0,0,0,0,0,0,0,0,0,0,0,0,0,0,0,0,0,0,0,0,0,0,0,0,0,0,0],"sum_hessian":[1.5926E4,1.4397E4,1.529E3,1.1185E4,3.212E3,4.68E2,1.061E3,1.173E3,1.0012E4,2.38E2,2.974E3,4.64E2,4E0,8E2,2.61E2,7.67E2,4.06E2,8.786E3,1.226E3,1.25E2,1.13E2,1.648E3,1.326E3,2.57E2,2.07E2,1E0,3E0,3.2E1,7.68E2,2.45E2,1.6E1,6.13E2,1.54E2,2.9E2,1.16E2,5.21E3,3.576E3,1.124E3,1.02E2,3.4E1,9.1E1,8.4E1,2.9E1,4.75E2,1.173E3,1.216E3,1.1E2,4.2E1,2.15E2,1.64E2,4.3E1,2E0,1E0,2.2E1,1E1,7.9E1,6.89E2,1.94E2,5.1E1,8E0,8E0,4.64E2,1.49E2,1.48E2,6E0,1.7E1,2.73E2,1.6E1,1E2,4.078E3,1.132E3,8.64E2,2.712E3,8.8E1,1.036E3,1.5E1,8.7E1,3.3E1,1E0,3.3E1,5.8E1,3.7E1,4.7E1,1.2E1,1.7E1,4.18E2,5.7E1,1.021E3,1.52E2,6.26E2,5.9E2,1E2,1E1,3.6E1,6E0,1.19E2,9.6E1,1.7E1,1.47E2,1.3E1,3E1,3E0,1.9E1,9E0,1E0,6.5E1,1.4E1,2.03E2,4.86E2,1.51E2,4.3E1,4E1,1.1E1,4E0,4E0,1E0,7E0],"tree_param":{"num_deleted":"0","num_feature":"51","num_nodes":"117","size_leaf_vector":"1"}},{"base_weights":[1.0305698E2,3.1332376E2,-6.058181E4,1.3198816E3,-1.1432244E4,-7.5324125E4,5.126894E4,2.3998523E3,-1.0173914E4,-2.4477582E4,-6.66443E3,-8.600198E4,1.0289733E3,-7.0416875E3,8.585989E4,6.380547E3,-2.2732742E3,-7.200444E3,-2.9655129E4,-2.591844E4,4.3085047E4,-3.980306E3,-3.438438E4,-1.16286266E5,-6.73721E4,1.1033742E4,-1.1059245E4,7.0363877E3,2.8679268E4,4.652977E3,1.9634883E4,-3.9947947E3,7.810807E3,-2.889209E4,-3.871522E3,-3.441413E4,1.711138E4,-8.505131E3,-3.335546E4,-1.36804795E4,3.775893E3,-4.8166514E3,-4.336777E4,-2.5496785E4,-4.4720062E4,-9.362959E3,-7.360549E4,-1.9894375E3,-8.461242E3,1.5233323E3,-1.511905E4,-7.355104E3,6.4987515E3,3.2334324E3,-1.5251719E3,1.4878328E3,2.2760457E4,-5.7995947E3,-1.4912152E4,-4.4849556E3,9.680521E2,-1.3072738E4,-3.766301E3,-4.909932E3,2.8210764E4,-5.6625566E3,5.367625E3,-8.265417E3,-2.2985387E4,-1.3699885E4,-3.3157483E3,5.450008E2,3.098303E4,-8.502816E3,1.474466E3,-1.7107678E4,-6.26195E3,-2.3099031E4,-7.2602974E3,-1.819375E1,-9.76525E2],"categories":[],"categories_nodes":[],"categories_segments":[],"categories_sizes":[],"default_left":[0,0,0,0,0,0,0,0,0,0,0,0,0,0,0,0,0,0,0,0,0,0,0,0,0,0,0,0,0,0,0,0,0,0,0,0,0,0,0,0,0,0,0,0,0,0,0,0,0,0,0,0,0,0,0,0,0,0,0,0,0,0,0,0,0,0,0,0,0,0,0,0,0,0,0,0,0,0,0,0,0],"id":14,"left_children":[1,3,5,7,9,11,13,15,17,19,21,23,25,-1,27,29,31,33,35,37,-1,39,41,43,45,-1,47,-1,-1,49,51,53,55,57,59,61,63,65,67,69,71,73,75,-1,-1,-1,77,79,-1,-1,-1,-1,-1,-1,-1,-1,-1,-1,-1,-1,-1,-1,-1,-1,-1,-1,-1,-1,-1,-1,-1,-1,-1,-1,-1,-1,-1,-1,-1,-1,-1],"loss_changes":[2.032477E11,1.8767512E11,9.455342E10,1.8151434E11,7.777064E10,4.003755E10,2.011292E10,2.486527E11,7.254253E10,8.4859355E10,6.8240224E10,1.6425845E10,3.4318403E9,0E0,7.9620506E8,1.651849E11,1.0677757E11,7.866904E10,3.7534155E10,4.284085E10,0E0,6.3175053E10,2.1306204E10,2.7199242E9,4.2397778E9,0E0,8.76895E8,0E0,0E0,1.4961582E11,7.501441E10,8.457207E10,1.7369235E11,2.789326E10,7.451843E10,2.9694001E10,4.274326E10,2.7985517E10,5.6395055E10,3.0848983E10,9.085145E10,4.7181983E9,1.785779E10,0E0,0E0,0E0,2.15765E9,1.2008428E7,0E0,0E0,0E0,0E0,0E0,0E0,0E0,0E0,0E0,0E0,0E0,0E0,0E0,0E0,0E0,0E0,0E0,0E0,0E0,0E0,0E0,0E0,0E0,0E0,0E0,0E0,0E0,0E0,0E0,0E0,0E0,0E0,0E0],"parents":[2147483647,0,0,1,1,2,2,3,3,4,4,5,5,6,6,7,7,8,8,9,9,10,10,11,11,12,12,14,14,15,15,16,16,17,17,18,18,19,19,21,21,22,22,23,23,24,24,26,26,29,29,30,30,31,31,32,32,33,33,34,34,35,35,36,36,37,37,38,38,39,39,40,40,41,41,42,42,46,46,47,47],"right_children":[2,4,6,8,10,12,14,16,18,20,22,24,26,-1,28,30,32,34,36,38,-1,40,42,44,46,-1,48,-1,-1,50,52,54,56,58,60,62,64,66,68,70,72,74,76,-1,-1,-1,78,80,-1,-1,-1,-1,-1,-1,-1,-1,-1,-1,-1,-1,-1,-1,-1,-1,-1,-1,-1,-1,-1,-1,-1,-1,-1,-1,-1,-1,-1,-1,-1,-1,-1],"split_conditions":[1E0,1E0,8.333333E-1,1E0,3.3695653E-1,5.7096E4,1.02E3,1E0,7.351724E-1,1E0,9.5E3,3.1006E4,4.1E3,-7.0416875E3,5.0980395E-1,5E-1,6.086956E-1,2.413793E-1,8.464674E-1,2.8827587E-1,4.3085047E4,2.6086956E-1,2.0833333E-1,3.9215687E-1,3.4002E4,1.1033742E4,4.42E3,7.0363877E3,2.8679268E4,1E0,6.6E1,2.3448275E-2,6.758621E-1,7.301E3,5.067935E-1,4.4021E4,4.7826087E-1,9.375E-2,4.5343137E-1,1.5310344E-1,1.31E2,4.388587E-1,4.4021E4,-2.5496785E4,-4.4720062E4,-9.362959E3,6.086956E-1,1E0,-8.461242E3,1.5233323E3,-1.511905E4,-7.355104E3,6.4987515E3,3.2334324E3,-1.5251719E3,1.4878328E3,2.2760457E4,-5.7995947E3,-1.4912152E4,-4.4849556E3,9.680521E2,-1.3072738E4,-3.766301E3,-4.909932E3,2.8210764E4,-5.6625566E3,5.367625E3,-8.265417E3,-2.2985387E4,-1.3699885E4,-3.3157483E3,5.450008E2,3.098303E4,-8.502816E3,1.474466E3,-1.7107678E4,-6.26195E3,-2.3099031E4,-7.2602974E3,-1.819375E1,-9.76525E2],"split_indices":[24,22,1,23,12,49,0,20,13,1,0,49,0,0,2,7,11,13,12,13,0,11,2,2,49,0,0,0,0,46,50,13,13,0,12,49,11,7,2,13,50,12,49,0,0,0,11,26,0,0,0,0,0,0,0,0,0,0,0,0,0,0,0,0,0,0,0,0,0,0,0,0,0,0,0,0,0,0,0,0,0],"split_type":[0,0,0,0,0,0,0,0,0,0,0,0,0,0,0,0,0,0,0,0,0,0,0,0,0,0,0,0,0,0,0,0,0,0,0,0,0,0,0,0,0,0,0,0,0,0,0,0,0,0,0,0,0,0,0,0,0,0,0,0,0,0,0,0,0,0,0,0,0,0,0,0,0,0,0,0,0,0,0,0,0],"sum_hessian":[1.5926E4,1.5872E4,5.4E1,1.462E4,1.252E3,4.8E1,6E0,1.3365E4,1.255E3,3.34E2,9.18E2,4.2E1,6E0,2E0,4E0,7.217E3,6.148E3,1.09E3,1.65E2,3.32E2,2E0,8.38E2,8E1,1.4E1,2.8E1,1E0,5E0,1E0,3E0,6.386E3,8.31E2,5.252E3,8.96E2,1.44E2,9.46E2,1.5E2,1.5E1,1E2,2.32E2,3.72E2,4.66E2,1.9E1,6.1E1,9E0,5E0,5E0,2.3E1,4E0,1E0,6.338E3,4.8E1,3.6E1,7.95E2,3.6E2,4.892E3,8.61E2,3.5E1,1E2,4.4E1,3.69E2,5.77E2,1.05E2,4.5E1,1.1E1,4E0,7.2E1,2.8E1,2.06E2,2.6E1,2.7E1,3.45E2,4.58E2,8E0,5E0,1.4E1,3.7E1,2.4E1,2.1E1,2E0,2E0,2E0],"tree_param":{"num_deleted":"0","num_feature":"51","num_nodes":"81","size_leaf_vector":"1"}},{"base_weights":[6.646967E1,5.5219507E3,-1.7593438E3,1.2237277E3,5.3241543E4,-2.3391209E4,4.3307735E1,6.164876E3,-1.1630284E4,4.2682496E4,1.0641958E5,-1.8137578E4,-4.5750766E4,-2.3654832E3,7.7720317E3,-8.934258E2,1.9920912E4,-1.6657938E4,1.5038414E4,5.8521957E4,2.019392E4,1.3901055E5,6.868008E4,-1.8886268E4,1.2527847E5,-3.8764117E4,-7.442814E4,-5.046407E3,6.071466E3,-1.8290389E4,9.57801E3,7.629906E3,-1.3640726E4,-3.603615E3,2.8703158E4,-1.992881E4,1.0103819E4,3.1452874E3,4.161611E4,9.444243E4,3.646636E4,1.4306579E4,7.5090664E4,1.02150914E5,2.3499645E5,8.50873E4,-2.7282037E4,-2.551557E4,-3.4420972E3,4.4912082E4,7.7989595E3,-2.1474352E4,-4.557012E4,-8.128427E4,-3.0028182E4,4.5253945E4,-5.628175E3,2.7646574E4,-7.598241E3,1.1373161E4,-2.720834E4,1.4111561E4,-1.7695508E3,1.3836846E3,1.2293659E4,-3.4087095E3,-1.8296652E4,-5.995535E3,2.017948E3,1.2289945E2,1.0757115E4,-7.6207915E3,-1.6948666E3,-3.27551E3,1.595356E4,3.883003E3,-2.1966004E4,1.6181089E4,-2.4017688E4,1.1217407E4,3.703784E4,1.2898111E4,-1.277547E3,7.6181387E3,-1.0391442E4,-4.9561577E3,3.894E4,3.385362E4,-1.8364998E4,8.090683E4,4.0258127E3,-1.4842782E4,2.782668E4,-1.8536348E3,-9.963835E3,-1.8899629E3,3.6896582E4,-9.660296E3,8.441688E3,-1.1036458E4,-2.0846303E4,-2.5172664E4,-1.5630094E3,-3.6798657E3,-1.3110423E4,1.5463183E4,-2.2840355E4,-1.1752677E3,-6.149773E3,3.7948416E3,1.3090952E4,-5.3355713E3,7.217715E2,-2.552976E3,6.059522E3,-1.146167E3,-1.061002E4,3.7049155E2,6.427695E3,5.059589E3,-2.156576E3],"categories":[],"categories_nodes":[],"categories_segments":[],"categories_sizes":[],"default_left":[0,0,0,0,0,0,0,0,0,0,0,0,0,0,0,0,0,0,0,0,0,0,0,0,0,0,0,0,0,0,0,0,0,0,0,0,0,0,0,0,0,0,0,0,0,0,0,0,0,0,0,0,0,0,0,0,0,0,0,0,0,0,0,0,0,0,0,0,0,0,0,0,0,0,0,0,0,0,0,0,0,0,0,0,0,0,0,0,0,0,0,0,0,0,0,0,0,0,0,0,0,0,0,0,0,0,0,0,0,0,0,0,0,0,0,0,0,0,0,0,0],"id":15,"left_children":[1,3,5,7,9,11,13,15,17,19,21,23,25,27,29,31,33,35,37,39,41,43,45,47,49,51,53,55,57,59,61,63,65,67,69,71,73,75,77,79,81,83,85,87,89,91,-1,93,95,-1,-1,97,99,101,103,105,107,109,111,113,115,117,119,-1,-1,-1,-1,-1,-1,-1,-1,-1,-1,-1,-1,-1,-1,-1,-1,-1,-1,-1,-1,-1,-1,-1,-1,-1,-1,-1,-1,-1,-1,-1,-1,-1,-1,-1,-1,-1,-1,-1,-1,-1,-1,-1,-1,-1,-1,-1,-1,-1,-1,-1,-1,-1,-1,-1,-1,-1,-1],"loss_changes":[1.5865363E11,